%YAML:1.0
---
opencv_ml_svm:
   format: 3
   svmType: C_SVC
   kernel:
      type: RBF
      gamma: 2.4000000000000000e-08
   C: 13.
   term_criteria: { epsilon:1.1920928955078125e-07, iterations:1000 }
   var_count: 64
   class_count: 4
   class_labels: !!opencv-matrix
      rows: 4
      cols: 1
      dt: i
      data: [ 0, 1, 2, 3 ]
   sv_total: 825
   support_vectors:
      - [ 1.83167017e+03, 2.48600067e+02, 3.08367432e+02, 1.14017534e+01,
          2.77511017e+02, 2.17019775e+02, 1.35664746e+03, 9.05507507e+02,
          1.01521149e+03, 6.28620483e+02, 3.16750774e+01, 3.77071686e+02,
          1.07259082e+03, 4.26289337e+02, 1.49114733e+01, 9.39583206e+01,
          62., 3.81909851e+02, 2.99901825e+02, 1.08771141e+02, 12.,
          2.01784943e+02, 0., 8.90879211e+02, 1.93506665e+03,
          3.77993408e+02, 1.80102402e+02, 5.11764526e+02, 1.56326492e+02,
          1.32943604e+02, 0., 0., 9.06356430e+01, 7.75418549e+01,
          6.93206543e+02, 1.78179688e+02, 1.19456641e+03, 2.24553979e+03,
          9.01817261e+02, 6.45600510e+01, 9.02033630e+02, 4.81663818e+01,
          3.86762390e+02, 9.68236511e+02, 3.26982812e+03, 5.58290039e+02,
          6.55770386e+02, 0., 3.77437103e+02, 0., 9.09512695e+02,
          2.01995447e+03, 9.08483154e+02, 2.08438538e+02, 2.09335495e+02,
          5.09901953e+00, 9.94282150e+01, 3.17571014e+02, 1.72539444e+02,
          8.91793823e+02, 8.27595215e+02, 5.18336243e+02, 3.69532501e+02,
          6.45135651e+01 ]
      - [ 1.35338428e+03, 4.80143359e+03, 2.40713428e+03, 8.93249130e+01,
          2.31622772e+01, 4.47213602e+00, 2.11107574e+02, 1.72159164e+02,
          1.41035431e+02, 3.81455994e+02, 5.67978859e+01, 4.36996857e+02,
          12., 5.83095169e+00, 2.05177937e+01, 6.64078293e+01,
          2.10437842e+03, 1.15964502e+03, 1.19645294e+02, 5.21727867e+01,
          8.99876892e+02, 3.77864502e+02, 4.56070137e+01, 2.03960781e+01,
          98., 5.45893745e+01, 0., 1.01461395e+02, 5.24930359e+02,
          9.48807312e+02, 1.26790796e+03, 3.59096240e+03, 3.37811401e+02,
          6.79931274e+02, 8.33101318e+02, 4.52484680e+02, 1.73522485e+03,
          1.79113464e+03, 1.52804214e+02, 3.29935944e+02, 4.02844086e+02,
          6.85131897e+02, 5.97527771e+02, 1.45633301e+03, 1.29963367e+03,
          1.87649521e+02, 1.30299652e+02, 1.26649117e+02, 2.43688217e+02,
          0., 1.62254993e+03, 1.76181717e+02, 1.26734875e+03,
          1.96839465e+03, 9.24985107e+02, 9.08676025e+02, 5.82217651e+02,
          6.28856323e+02, 1.55086719e+03, 8.72944824e+02, 1.19059363e+03,
          4.41770233e+02, 1.96622375e+02, 3.96232262e+01 ]
      - [ 3.87762360e+02, 1.07192131e+02, 1.16619034e+01, 0.,
          3.00449982e+02, 0., 1.50280899e+02, 7.18326721e+01,
          2.29364304e+02, 3.38440369e+02, 2.08333447e+03, 1.31651880e+03,
          2.18604385e+02, 1.52582657e+02, 3.69632019e+02, 5.41404480e+02,
          184., 7.14937744e+01, 2.31271805e+02, 2.98285583e+02,
          1.44191748e+03, 1.40379517e+03, 4.23650787e+02, 7.45556870e+01,
          2.07023697e+02, 2.39756241e+02, 2.29559067e+02, 1.40015411e+02,
          1.87099030e+02, 1.48469788e+02, 1.99340240e+02, 1.55551697e+02,
          1.24297656e+03, 4.72350311e+02, 1.47433777e+02, 0., 160.,
          1.28062487e+01, 4.21875885e+02, 1.03524353e+03, 6.88790833e+02,
          4.28033661e+02, 1.11331360e+03, 6.76214600e+02, 1.64645178e+03,
          3.47997223e+02, 2.97679138e+02, 8.24953003e+02, 2.29308374e+03,
          6.00975525e+02, 6.56872070e+02, 5.54553040e+02, 2.30918121e+02,
          8.00601929e+02, 1.26470374e+03, 1.00598163e+03, 8.14050598e+02,
          2.26413345e+02, 1.22684784e+02, 7.01670044e+02, 1.32457483e+03,
          7.06823883e+01, 1.01971626e+02, 4.64686127e+02 ]
      - [ 2.96418213e+03, 2.05316309e+03, 5.31179688e+02, 0., 72.,
          1.07628990e+02, 0., 2.95917419e+02, 3.03808960e+03,
          6.49808472e+02, 6.46592041e+02, 6.07606445e+02, 1.45506812e+03,
          2.42042374e+02, 3.18060852e+02, 1.30463086e+03, 1.31297473e+03,
          3.75723877e+02, 2.66158722e+02, 3.90174866e+02, 1.26657251e+03,
          9.27102844e+02, 1.15168610e+02, 8.00249939e+01, 3.94988495e+02,
          8.22487854e+02, 2.27903503e+02, 7.31892639e+02, 2.74818787e+02,
          1.12654492e+03, 1.09624683e+03, 1.97612317e+03, 3.94351227e+02,
          9.52938766e+01, 0., 0., 88., 1.92353840e+01, 1.79176880e+02,
          7.23262878e+02, 3.95733154e+02, 9.02946594e+02, 1.21598206e+03,
          1.09301721e+03, 9.35248901e+02, 1.01743750e+03, 1.65414627e+02,
          6.95844803e+01, 386., 7.08715027e+02, 8.04542542e+02,
          1.05682739e+03, 1.03322070e+03, 5.86300598e+02, 5.27769653e+02,
          5.08320984e+02, 3.26213959e+02, 2.13555038e+02, 6.49762207e+02,
          6.08521973e+02, 9.00835510e+02, 1.16976208e+03, 3.88704834e+02,
          2.12280579e+02 ]
      - [ 8.56142822e+02, 1.26918800e+02, 0., 1.01202766e+02, 18., 0.,
          7.90387207e+02, 2.26201758e+03, 2.09442188e+03, 7.26432129e+02,
          5.83095169e+00, 7.46325531e+01, 4.04978760e+02, 8.67240784e+02,
          2.25762711e+02, 3.40436462e+02, 3.23461853e+02, 6.22884705e+02,
          0., 0., 2.00504211e+02, 1.14236603e+02, 1.33401245e+02,
          2.27693823e+03, 1.88603467e+03, 1.12351036e+02, 1.79169678e+02,
          3.36461456e+02, 2.25281754e+02, 1.04702591e+02, 5.65685415e+00,
          8.92748566e+01, 2.91902771e+02, 2.30117569e+02, 5.68056755e+01,
          0., 1.79715729e+02, 5.16190674e+02, 4.22973236e+02,
          3.01272827e+02, 130., 2.19225998e+02, 1.77846497e+02,
          1.70027380e+03, 2.32777100e+03, 6.80247314e+02, 4.98427002e+02,
          8.51494293e+01, 5.50572144e+02, 2.40094604e+02, 5.64872742e+02,
          1.50015576e+03, 1.04131921e+03, 1.04395667e+03, 4.10392578e+02,
          1.91398575e+02, 1.85800171e+02, 2.02686844e+02, 3.42203308e+02,
          1.09657422e+03, 3.77079834e+02, 2.09106903e+02, 5.34659485e+02,
          1.21280426e+02 ]
      - [ 3.51769971e+03, 5.92256409e+02, 0., 1.68967773e+02,
          9.21641418e+02, 1.96321545e+03, 2.04050183e+03, 2.28342773e+03,
          1.17178882e+03, 0., 7.06823883e+01, 5.09901953e+00,
          1.40459625e+02, 7.82980957e+02, 8.79150574e+02, 5.67785034e+02,
          1.17647568e+02, 9.67929993e+02, 5.37063843e+02, 0.,
          1.21038452e+02, 0., 1.41651147e+03, 9.88360535e+02,
          8.73425415e+02, 1.49977341e+02, 6.72312775e+01, 5.45769165e+02,
          2.53205856e+02, 1.20879097e+01, 1.01289902e+01, 0.,
          2.11024368e+02, 2.18405487e+02, 2.79054321e+02, 3.85948700e+02,
          4.85943115e+02, 2.15864288e+02, 1.31420386e+03, 2.35372047e+01,
          4.25718170e+02, 7.34763260e+01, 4.39901489e+02, 2.80123242e+03,
          3.15585352e+03, 1.31060577e+02, 2.81081482e+02, 0.,
          4.70663330e+02, 3.68618774e+02, 4.65692047e+02, 2.59258789e+03,
          2.35847314e+03, 1.02279480e+03, 3.55738281e+02, 0.,
          3.05020966e+02, 2.35028717e+02, 3.15678711e+02, 5.05047302e+02,
          3.23034515e+02, 2.87404449e+02, 4.97024353e+02, 3.36923523e+02 ]
      - [ 4.39329004e+03, 3.10701147e+03, 1.26012903e+03, 9.26513062e+02,
          230., 2.68478699e+01, 3.67695541e+01, 2.04267929e+02,
          9.07196716e+02, 8.43025513e+02, 6.02168457e+02, 7.87496643e+02,
          8., 0., 0., 1.09918347e+03, 2.07514380e+03, 1.65529461e+01,
          1.72046509e+01, 0., 1.72335840e+03, 6.09200623e+02,
          3.02822754e+02, 0., 9.05576401e+01, 2.12132034e+01,
          7.52675018e+01, 9.22658157e+01, 9.15411133e+02, 6.40937561e+02,
          1.35499292e+03, 2.57580469e+03, 7.48937134e+02, 3.82241608e+02,
          0., 3.03644524e+01, 368., 5.15691711e+02, 1.15233765e+03,
          3.07664160e+03, 1.99564148e+03, 7.95489258e+02, 9.63843750e+02,
          9.95901306e+02, 1.44879333e+03, 2.98809143e+02, 2.94896790e+02,
          1.85607117e+02, 102., 4.56542877e+02, 8.86992493e+02,
          7.09851929e+02, 1.39684045e+03, 9.65181274e+02, 2.65204614e+03,
          2.94241638e+02, 5.68036682e+02, 1.31747284e+02, 5.46515503e+02,
          1.23860120e+03, 1.18737024e+03, 1.31496033e+02, 8.48528099e+00,
          0. ]
      - [ 5.38262891e+03, 4.38056946e+02, 5.08960266e+02, 0.,
          7.75511353e+02, 5.52536560e+02, 1.03565820e+03, 1.43329993e+03,
          1.60629053e+03, 1.16361511e+02, 6.22533081e+02, 7.54013855e+02,
          1.65305017e+03, 0., 3.23310852e+02, 1.53096606e+03,
          3.67970795e+02, 3.23552826e+02, 1.31608307e+02, 3.90884125e+02,
          1.48264014e+03, 6.40858154e+02, 7.06475281e+02, 1.06951331e+03,
          8.77343140e+02, 5.58613770e+02, 2.44497681e+02, 1.53737518e+02,
          1.81041855e+02, 0., 2.95742981e+02, 8.85048462e+02,
          6.68312012e+02, 7.90156784e+01, 0., 0., 2.33575943e+02,
          1.10075531e+02, 6.32343994e+02, 9.17331238e+02, 8.85972046e+02,
          3.18533081e+02, 1.97474045e+02, 1.77566833e+03, 1.73408691e+03,
          5.71394531e+02, 1.97219421e+02, 0., 9.33810791e+02,
          5.18099426e+02, 4.42196411e+02, 1.50513086e+03, 7.49042542e+02,
          6.11413269e+02, 5.33104134e+01, 4.71067810e+02, 7.23590393e+02,
          3.85794189e+02, 2.71256226e+02, 8.90370239e+02, 4.36020111e+02,
          5.96138794e+02, 5.24131592e+02, 2.37470108e+02 ]
      - [ 3.08928394e+03, 2.47563452e+03, 1.63967712e+02, 1.17087509e+02,
          1.61690002e+02, 0., 1.88464615e+02, 0., 3.43212311e+02,
          7.65120010e+01, 3.11366760e+02, 3.87320618e+02, 3.05670972e+03,
          3.39571045e+02, 3.17599792e+02, 1.24911926e+03, 1.45002710e+03,
          0., 6.15340637e+02, 5.63451599e+02, 1.17405481e+03, 0.,
          8.23709946e+01, 1.41421366e+01, 2.70983124e+02, 0.,
          4.30634460e+02, 3.05658234e+02, 7.23435287e+01, 1.55110977e+02,
          4.24022278e+02, 4.01263477e+03, 9.51526794e+01, 2.52400467e+02,
          4.25608002e+02, 2.60579193e+02, 5.04394928e+02, 3.13194275e+01,
          5.29481750e+02, 8.54193115e+01, 5.13492432e+02, 4.41094299e+02,
          4.56687317e+02, 3.97326929e+03, 1.66141577e+03, 1.94823425e+02,
          8.60232544e+00, 1.28567932e+02, 4.52984833e+02, 5.21312744e+02,
          2.37979248e+02, 8.82333191e+02, 8.59819946e+02, 3.93599915e+02,
          3.90678345e+02, 2.02408081e+02, 5.80053284e+02, 2.67164673e+02,
          4.31438538e+02, 1.07891980e+03, 1.09591760e+03, 5.91710266e+02,
          1.88532745e+02, 4.63249397e+01 ]
      - [ 4.99043115e+03, 1.12398572e+03, 2.63064026e+02, 3.08220215e+02,
          1.37282629e+03, 2.61369476e+02, 4.38634224e+01, 0.,
          4.83588135e+03, 2.85612427e+03, 9.92974243e+01, 1.14173950e+02,
          1.63080170e+02, 3.21349182e+02, 9.55800400e+01, 4.44072075e+01,
          1.26655933e+03, 6.72513000e+02, 5.53683472e+02, 1.97641037e+02,
          1.07703295e+01, 0., 1.10435501e+02, 6.32455540e+00,
          1.78086609e+03, 8.67185364e+02, 2.68622803e+02, 1.86790863e+02,
          1.27386536e+03, 8.26003357e+02, 8.92716003e+02, 1.90963879e+03,
          14., 1.03433826e+03, 3.38197510e+03, 2.00368970e+03,
          9.56529053e+02, 3.30384064e+01, 4.26380119e+01, 5.90084724e+01,
          2.24916092e+02, 4.44581604e+02, 1.67940515e+03, 5.02993713e+02,
          6.83098816e+02, 0., 0., 1.32574509e+02, 2.23785172e+02,
          2.34192764e+02, 1.31180798e+03, 2.13938675e+02, 1.07689929e+03,
          9.16838989e+02, 4.07346252e+02, 1.13777954e+02, 7.93562866e+02,
          1.52324783e+02, 3.61619873e+02, 1.52419055e+03, 1.48855103e+03,
          7.58048767e+02, 3.81963959e+02, 0. ]
      - [ 1.99389661e+03, 2.59628076e+03, 2.33722290e+03, 3.35261116e+01,
          5.24133179e+02, 1.98188461e+02, 5.09082916e+02, 1.92238174e+02,
          1.04921021e+02, 1.02342560e+02, 6.70245911e+02, 1.11789966e+03,
          9.69426727e+01, 0., 0., 0., 5.77719971e+02, 0., 0., 0.,
          1.19728447e+02, 1.90701416e+03, 2.01475815e+02, 0.,
          2.79571228e+02, 7.83788071e+01, 3.21062744e+02, 2.78778259e+02,
          4.82622742e+02, 5.54037476e+02, 5.01510162e+02, 4.38723389e+02,
          8.37321320e+01, 0., 6.31729309e+02, 2.22085083e+02, 460.,
          2.78763092e+02, 1.12328711e+03, 9.69218018e+02, 9.52588989e+02,
          3.98219543e+02, 7.08489136e+02, 2.00119312e+03, 2.01612402e+03,
          1.08166542e+02, 1.17889771e+02, 8.66833344e+01, 7.07363342e+02,
          1.53759064e+02, 1.53774927e+03, 9.00900085e+02, 1.30626831e+03,
          5.86407898e+02, 1.50047559e+03, 3.06831390e+02, 5.93307434e+02,
          1.34659607e+02, 4.44530365e+02, 5.58208557e+02, 9.79631104e+02,
          2.90758057e+02, 5.09313278e+01, 1.08931175e+02 ]
      - [ 8.55737305e+02, 9.52088135e+02, 1.12398694e+03, 4.45818115e+02,
          5.16686890e+02, 0., 2.82842708e+00, 5.74347458e+01,
          3.42361450e+01, 6.22253952e+01, 4.16173058e+01, 5.75543060e+01,
          10., 0., 1.08502960e+02, 1.50852264e+02, 1.76245117e+02,
          1.86676376e+02, 9.23074188e+01, 9.53792572e+01, 3.14455811e+02,
          7.68988724e+01, 1.37505020e+02, 3.29963646e+01, 1.47753174e+02,
          6.43809052e+01, 9.13479462e+01, 0., 1.39048630e+02,
          5.22493057e+01, 3.33340378e+01, 3.18549614e+01, 1.87334641e+02,
          9.50514069e+01, 8.10468903e+01, 1.11917442e+02, 2.57811401e+02,
          2.41504578e+02, 8.88307007e+02, 4.48268524e+02, 3.79134613e+02,
          1.85031799e+02, 2.51575069e+01, 3.62889709e+01, 3.89837723e+01,
          4.19035645e+01, 7.25548325e+01, 3.98237648e+01, 2.17104431e+02,
          8.70017242e+01, 4.74403877e+01, 4.09333839e+01, 2.11870514e+02,
          1.26430962e+02, 2.50901443e+02, 1.21231453e+02, 1.09003532e+02,
          7.56341782e+01, 8.59198303e+01, 1.10948792e+02, 1.85005219e+02,
          4.91270180e+01, 1.32855881e+02, 2.22087967e+02 ]
      - [ 2.55351367e+03, 2.60276794e+02, 0., 6.32455540e+00,
          3.74113892e+02, 7.21110249e+00, 5.39802246e+02, 2.94464917e+03,
          2.48662256e+03, 1.93702850e+02, 7.21110249e+00, 9.05538559e+00,
          3.56842133e+02, 8.99715149e+02, 2.74576385e+02, 2.14011230e+02,
          3.59077332e+02, 2.11855576e+02, 6.45629578e+02, 2.68213013e+02,
          6., 1.12334091e+02, 1.68077362e+02, 6.37368591e+02,
          2.58214404e+03, 3.79183716e+02, 6.53172607e+01, 6.60344788e+02,
          2.02379089e+02, 1.36730087e+02, 2.12132034e+01, 2.05070343e+02,
          6.34883789e+02, 3.08983124e+02, 4.88262253e+01, 9.79799957e+01,
          6.91994263e+02, 7.58023758e+01, 9.20332336e+02, 0.,
          1.66689835e+02, 2.59076447e+02, 2.25942459e+02, 1.56598352e+03,
          3.17593433e+03, 2.57284943e+02, 3.16046875e+02, 1.59038910e+02,
          4.31628662e+02, 3.48088196e+02, 1.24270190e+03, 1.21957397e+03,
          1.28016943e+03, 1.08305188e+03, 3.77110626e+02, 9.11226044e+01,
          3.15752960e+02, 2.03070282e+02, 4.17629395e+02, 4.89832947e+02,
          6.91014587e+02, 4.03253937e+02, 1.58463058e+02, 0. ]
      - [ 2.09198340e+03, 9.29888794e+02, 3.67049286e+02, 6.58791687e+02,
          9.70767273e+02, 2.02966339e+02, 1.67205551e+02, 2.42940704e+02,
          4.29106903e+02, 5.24210205e+02, 3.72356079e+02, 1.13283862e+03,
          34., 5.99249268e+01, 0., 1.19177832e+03, 4.89585144e+02,
          3.22490311e+01, 9.51426926e+01, 6.34030342e+01, 5.20933350e+02,
          1.93357532e+03, 3.16117828e+02, 1.67954819e+02, 3.04202148e+02,
          1.93043579e+02, 3.86450745e+02, 3.56601379e+02, 1.18787094e+02,
          1.08337730e+02, 1.06298752e+02, 3.14792114e+02, 2.89297424e+02,
          3.24550659e+02, 5.04659210e+02, 1.28466949e+02, 9.87971069e+02,
          1.00447009e+03, 1.02539600e+03, 3.36192322e+02, 7.12918274e+02,
          4.15168793e+02, 9.54834534e+02, 7.56891541e+02, 1.48253320e+03,
          1.39312592e+02, 1.67025177e+02, 5.17880287e+01, 4.99824402e+02,
          7.64886719e+02, 1.14689612e+03, 1.17209221e+02, 5.99637573e+02,
          1.25048938e+03, 1.01055090e+03, 2.10493973e+02, 7.25114441e+02,
          4.10121918e+01, 0., 4.32276733e+02, 1.36408191e+03,
          4.73467834e+02, 1.54407227e+02, 2.78926506e+01 ]
      - [ 7.10730652e+02, 5.84229889e+01, 0., 0., 8., 0., 1.48597876e+03,
          1.01980391e+01, 8.89669495e+02, 8.80235474e+02, 4.07761963e+02,
          3.19378433e+01, 8.81066895e+01, 1.17780811e+03, 7.60237915e+02,
          2.20794250e+02, 7.95310181e+02, 2.97525970e+02, 5.62148682e+02,
          0., 3.28937683e+01, 0., 7.31673401e+02, 2.09609106e+03,
          9.86244995e+02, 3.36503540e+02, 2.02835236e+01, 5.43209656e+02,
          2.77990875e+02, 1.26417076e+02, 3.14231834e+01, 3.12712158e+02,
          6.13958923e+02, 1.38641754e+02, 1.09772491e+02, 0., 0., 0.,
          5.73574036e+02, 7.61051865e+01, 4.55803925e+02, 8.92328644e+01,
          9.08346619e+02, 1.47679590e+03, 3.17576294e+03, 5.19597656e+02,
          4.06565094e+02, 8.58713608e+01, 6.49057739e+02, 9.37525757e+02,
          1.40615222e+03, 8.33172913e+02, 7.10939636e+02, 9.54388367e+02,
          9.40351135e+02, 0., 9.65058899e+01, 4.24264050e+00,
          3.60555115e+01, 1.05626205e+02, 1.07969421e+03, 5.73642761e+02,
          2.32265106e+02, 2.79692993e+02 ]
      - [ 4.13089697e+03, 5.59747803e+02, 0., 5.44242630e+01, 448., 0.,
          0., 9.65401459e+01, 6.26443115e+03, 6.40727356e+02,
          1.79188614e+01, 2.16216145e+01, 1.39538742e+02, 3.86712799e+02,
          1.24814417e+03, 1.35977936e+02, 7.89679382e+02, 1.31987805e+03,
          7.33841003e+02, 0., 1.15015465e+02, 0., 9.00777435e+01,
          3.36492017e+03, 1.66618652e+03, 2.75368713e+02, 0.,
          1.80299164e+02, 7.09996643e+02, 2.16623108e+02, 0., 0.,
          1.32099747e+02, 3.30435699e+02, 1.50711639e+02, 1.90073563e+02,
          3.34728912e+02, 0., 2.84368805e+02, 8.46400391e+02,
          8.72016235e+02, 1.78374451e+02, 8.30920471e+02, 8.75386169e+02,
          1.20183044e+03, 1.02611719e+03, 5.61974121e+02, 3.59802246e+02,
          4.68534180e+02, 5.40889771e+02, 4.97486633e+02, 4.18289642e+02,
          1.02890198e+03, 1.20740100e+03, 4.96616486e+02, 2.11573822e+02,
          5.31622772e+01, 1.50643402e+02, 2.67828735e+02, 4.01199585e+02,
          6.33199524e+02, 2.44732239e+02, 4.75910339e+02, 1.19983147e+02 ]
      - [ 1.36479150e+03, 6.09546570e+02, 0., 0., 1.70632004e+02,
          4.58039322e+01, 1.60530725e+03, 1.38607898e+03, 8.73977966e+02,
          8.00410522e+02, 6.21458008e+02, 1.53323650e+01, 6.45593323e+02,
          1.11325293e+03, 272., 1.12713341e+02, 2.59190399e+02,
          1.24762415e+03, 9.65401459e+01, 0., 2.15406590e+01, 0.,
          1.23515491e+03, 5.68863831e+02, 2.09331836e+03, 2.57284973e+02,
          3.98277405e+02, 3.65343872e+02, 1.79661041e+02, 1.20879097e+01,
          6.48845139e+01, 0., 2.55425858e+02, 1.37904678e+02,
          4.94321228e+02, 4.71261169e+02, 1.00143726e+03, 1.28390039e+03,
          9.99626007e+01, 7.20547638e+01, 4.76808655e+02, 1.99597412e+02,
          4.04814056e+02, 1.63332874e+03, 3.95579541e+03, 1.29788177e+02,
          1.16619034e+01, 2.50899521e+02, 3.22062439e+02, 1.84390888e+01,
          8.13216431e+02, 2.69734375e+03, 1.10232556e+03, 5.69319519e+02,
          6.71682861e+02, 5.65154877e+01, 1.15498993e+02, 0.,
          2.23586304e+02, 3.37195099e+02, 5.55784607e+02, 4.46802338e+02,
          4.70642914e+02, 4.25833801e+02 ]
      - [ 1.41788025e+02, 1.80773590e+02, 0., 0., 2.35440659e+02,
          1.27217773e+02, 9.47085571e+01, 1.55372620e+02, 3.55986084e+02,
          4.87254272e+02, 8.97034912e+02, 3.57319580e+03, 3.85595276e+02,
          1.77454590e+02, 3.65245850e+02, 2.65650330e+02, 8.10262985e+01,
          2.82842708e+00, 0., 4.50728363e+02, 2.84570093e+03,
          6.62619324e+02, 7.02224915e+02, 1.16272240e+02, 3.14829803e+02,
          1.74513519e+02, 4.58402939e+01, 1.57907166e+02, 1.73228745e+02,
          3.30151482e+01, 1.76672134e+02, 0., 4.43634888e+02,
          2.17947217e+03, 1.17592522e+02, 0., 4.36166443e+02,
          3.82421997e+02, 9.74242065e+02, 4.48603821e+02, 5.29430786e+02,
          3.01665588e+02, 7.36491333e+02, 2.18108813e+03, 1.34816968e+03,
          6.09968994e+02, 4.62840637e+02, 6.47992493e+02, 8.33523315e+02,
          7.70310791e+02, 1.40857605e+03, 0., 3.15648468e+02,
          7.92885437e+02, 1.56090540e+03, 5.92884766e+02, 318.,
          1.91647675e+02, 2.49427444e+02, 9.68009399e+02, 1.20117188e+03,
          3.26051971e+02, 1.53271103e+02, 1.38402832e+03 ]
      - [ 3.33222559e+03, 5.75751270e+03, 1.26733923e+03, 0.,
          2.93014282e+02, 0., 0., 3.18493469e+02, 2.88657990e+02,
          7.48733398e+02, 1.20603735e+03, 1.14968079e+02, 0.,
          2.84253387e+01, 2.06495972e+01, 1.58113871e+01, 1.80101123e+03,
          4.13777496e+02, 0., 4.30116272e+01, 3.99048340e+02,
          1.63762781e+03, 3.74967102e+02, 2.08244324e+02, 1.60730301e+02,
          5.67216873e+01, 1.06534645e+02, 6.99328857e+02, 6.21355713e+02,
          1.48275269e+02, 2.61695984e+02, 1.51080774e+03, 3.31914124e+02,
          3.40593536e+02, 0., 7.64198914e+01, 402., 1.02956305e+01,
          6.55729980e+02, 4.11782227e+02, 1.38513049e+03, 9.93300964e+02,
          1.19148511e+03, 1.69587878e+03, 1.52518762e+03, 2.03676407e+02,
          2.61201385e+02, 6.64830780e+01, 5.82433533e+02, 4.09935852e+02,
          1.17776587e+03, 1.04688477e+03, 1.21399390e+03, 1.02838916e+03,
          1.67665881e+03, 3.30980804e+02, 2.31540665e+02, 3.07499878e+02,
          1.68902328e+02, 4.64843506e+02, 1.02390741e+03, 3.54032257e+02,
          1.63119278e+02, 2.23606815e+01 ]
      - [ 4.41569397e+02, 4.67780365e+02, 1.08108063e+02, 0.,
          3.35468292e+02, 0., 1.23715164e+02, 9.82974396e+01,
          1.61706329e+02, 7.82915344e+02, 1.56453503e+03, 8.88097839e+02,
          6.34202042e+01, 1.27878960e+02, 3.12631927e+02, 4.48942474e+02,
          1.43013519e+02, 3.02586231e+01, 3.46698723e+01, 0.,
          1.22851367e+03, 1.27286951e+03, 4.69254944e+02, 7.21855698e+01,
          1.90863556e+02, 2.02734558e+02, 2.11247543e+02, 2.31692978e+02,
          3.23001099e+02, 1.07414795e+02, 2.10018234e+02, 3.17142914e+02,
          1.20662854e+03, 5.66147522e+02, 1.77747055e+02, 1.70293865e+01,
          172., 1.76393585e+02, 6.08596313e+02, 9.46648926e+02,
          5.73854858e+02, 5.33568054e+02, 1.21453308e+03, 1.27334351e+03,
          1.15886389e+03, 7.34607178e+02, 3.90549316e+02, 6.72830322e+02,
          4.41604858e+02, 1.62485132e+03, 7.65757019e+02, 5.57439941e+02,
          9.87204346e+02, 5.12991943e+02, 1.45867529e+03, 4.99779724e+02,
          4.41126160e+02, 4.07726379e+02, 3.74391022e+02, 1.23057446e+03,
          9.69495667e+02, 2.62954163e+02, 1.47023544e+02, 2.72597015e+02 ]
      - [ 1.60768262e+03, 2.95879089e+02, 6.34483215e+02, 1.18576233e+03,
          1.69158447e+03, 1.11410072e+02, 3.76606720e+02, 1.87474219e+03,
          1.57615759e+03, 6.14143639e+01, 1.18442375e+02, 2.12128174e+03,
          4.39967865e+02, 4.33820229e+01, 0., 4.42351807e+02,
          1.42189255e+02, 2.18055603e+02, 5.64623795e+01, 4.75938538e+02,
          1.38564099e+03, 9.87764160e+02, 6.16456787e+02, 1.36629578e+03,
          1.02747314e+03, 2.44964569e+02, 6.85679932e+02, 1.04938080e+02,
          1.58767090e+02, 2.22345154e+02, 7.69010437e+02, 6.96419449e+01,
          2.22628403e+02, 5.02530823e+02, 0., 1.75764355e+03,
          3.38430591e+03, 7.07707886e+02, 3.21503784e+02, 2.07252808e+02,
          222., 1.96878708e+02, 4.70106392e+01, 1.30194385e+03,
          2.65174731e+03, 3.60555115e+01, 1.52315474e+01, 1.44261322e+02,
          7.70364441e+02, 6.69755493e+02, 1.04015698e+03, 6.77289917e+02,
          1.00611530e+03, 6.06808411e+02, 7.73122070e+02, 3.07462128e+02,
          3.77208282e+02, 2.84561340e+02, 9.83575684e+02, 1.11469995e+03,
          9.54301514e+02, 4.77126953e+02, 7.11670715e+02, 3.84908325e+02 ]
      - [ 6.46127881e+03, 1.02248053e+03, 2.02662891e+03, 4.14171997e+02,
          878., 2.81780975e+02, 2.64377258e+02, 9.08467896e+02,
          4.61559912e+03, 5.05909027e+02, 6.03935059e+02, 3.56635040e+02,
          5.57853012e+01, 2.64121185e+02, 5.11006775e+02, 2.46677917e+02,
          6.69496216e+02, 8.45785950e+02, 9.28861389e+02, 4.75874756e+02,
          3.00361267e+02, 4.45985809e+02, 7.07935059e+02, 6.59421814e+02,
          1.66136963e+03, 6.04045349e+02, 4.13665955e+02, 7.74721619e+02,
          1.33687927e+03, 9.87649109e+02, 8.62670288e+01, 1.54770309e+02,
          198., 1.24458824e+02, 3.76175476e+02, 1.08492688e+03,
          8.93378296e+02, 1.51360095e+03, 4.25188037e+03, 2.13393359e+03,
          7.80890930e+02, 4.78341248e+02, 3.30103027e+02, 1.06218359e+03,
          6.68247864e+02, 3.66286987e+02, 1.98962112e+02, 1.90556122e+02,
          1.06804077e+02, 3.00000019e+01, 1.57711768e+03, 1.34181396e+03,
          5.46241943e+02, 3.33624969e+02, 2.16226730e+02, 1.05039539e+03,
          2.14022510e+03, 1.55087952e+03, 7.01321533e+02, 6.09002876e+01,
          4.26558960e+02, 9.97008743e+01, 0., 4.39317665e+01 ]
      - [ 6.09822363e+03, 1.68922913e+03, 3.14836731e+02, 1.09554138e+02,
          8.16563599e+02, 1.77149963e+02, 1.02234180e+03, 1.45232581e+03,
          1.83480823e+03, 2.82551422e+02, 9.76729202e+01, 1.05714526e+03,
          2.04575488e+03, 4.90896423e+02, 3.14974060e+02, 3.31740784e+02,
          1.44928076e+03, 3.74988251e+02, 5.63229126e+02, 9.36375961e+01,
          1.03538184e+03, 1.50446863e+03, 9.95568970e+02, 1.49033411e+03,
          9.45318176e+02, 4.42967529e+01, 4.12310562e+01, 5.52374496e+01,
          3.00660797e+02, 2.39597839e+02, 5.85787781e+02, 5.08036377e+02,
          3.81220276e+02, 2.02151550e+02, 3.49927704e+02, 0.,
          1.02350061e+03, 1.35373132e+03, 1.22115601e+03, 5.63844727e+02,
          1.62569861e+03, 0., 2.24337524e+03, 1.93078516e+03,
          1.08244299e+03, 1.52055188e+03, 0., 4.72188782e+02,
          6.46249878e+02, 6.01435913e+02, 1.30382837e+03, 3.66707153e+02,
          2.10966016e+03, 6.15844666e+02, 4.59980988e+02, 7.30798828e+02,
          7.68827820e+02, 4.33291260e+02, 6.72560242e+02, 1.52145081e+02,
          1.09621082e+03, 0., 2.70834167e+02, 3.18617615e+02 ]
      - [ 3.15896289e+03, 1.08303638e+03, 2.50011993e+02, 3.97889862e+02,
          348., 2.89927551e+02, 2.71459015e+02, 4.20010132e+02,
          2.33128174e+03, 3.85547485e+02, 1.04651802e+02, 1.31357031e+03,
          1.16997913e+03, 1.61245148e+02, 2.55101566e+01, 2.99092114e+03,
          2.93520813e+02, 1.91162140e+02, 2.26384628e+02, 8.48942444e+02,
          2.35347632e+03, 6.32496216e+02, 6.02985291e+02, 1.37613184e+03,
          1.15750024e+03, 5.87865723e+02, 2.19274933e+02, 8.23439102e+01,
          72., 3.30151482e+01, 3.42536041e+02, 1.26069629e+03,
          4.27309631e+02, 0., 8.16507950e+01, 1.03249184e+02,
          2.89182159e+02, 3.75765877e+01, 6.50442017e+02, 1.08683484e+03,
          4.75255798e+02, 5.11550110e+02, 8.44133179e+02, 1.34310742e+03,
          1.45035754e+03, 6.95412292e+02, 8.97212830e+02, 3.46628510e+02,
          7.83026367e+02, 5.04692017e+02, 5.21640930e+02, 2.32010840e+03,
          8.74075989e+02, 3.71659332e+02, 2.31369095e+02, 4.50289856e+02,
          4.62963898e+02, 5.48376587e+02, 5.57895325e+02, 1.26235132e+03,
          1.00624237e+03, 6.09984985e+02, 5.77801086e+02, 1.07699475e+03 ]
      - [ 6.66586475e+03, 1.16207654e+03, 5.55697746e+01, 1.21655245e+01,
          3.34496918e+02, 8.23771820e+01, 3.86018066e+02, 0.,
          1.57270111e+02, 1.48600143e+02, 2.74258392e+02, 6.92292358e+02,
          1.87174500e+03, 1.54824234e+02, 3.79992584e+02, 8.52722046e+02,
          1.88851929e+03, 2.69136230e+02, 1.44539337e+02, 5.46762634e+02,
          2.41514087e+03, 2.38328293e+02, 1.22157947e+03, 6.30676941e+02,
          9.83379089e+02, 3.91615448e+02, 5.41292419e+02, 5.89037964e+02,
          9.35530029e+02, 1.61689438e+02, 2.93163208e+02, 3.80402771e+02,
          6.48675354e+02, 0., 7.78973694e+01, 5.70788956e+01,
          2.61162292e+02, 4.70106392e+01, 5.68390625e+02, 5.14182007e+02,
          1.93499097e+03, 5.93577087e+02, 1.02445142e+03, 1.99176392e+03,
          1.53582886e+03, 6.62832581e+02, 6.29914490e+02, 0.,
          6.73169189e+02, 3.74345398e+02, 5.50933044e+02, 1.54609924e+03,
          1.30147644e+03, 4.32174408e+02, 3.99098145e+02, 6.58667969e+02,
          4.43211609e+02, 1.19793495e+02, 3.81981598e+02, 1.50474744e+03,
          1.47123999e+03, 6.46272034e+02, 1.21289696e+02, 1.91590164e+02 ]
      - [ 3.84842871e+03, 1.62468701e+03, 8.06932373e+02, 2.11128006e+02,
          22., 6.75012268e+02, 2.66031372e+02, 3.05941162e+01, 400.,
          4.48928680e+02, 4.44449402e+02, 6.12296387e+02, 1.42329626e+03,
          1.00912910e+02, 1.46845322e+02, 3.63229980e+02, 1.64670789e+03,
          5.82224304e+02, 5.16722534e+02, 4.60338776e+02, 1.78406934e+03,
          1.40166736e+03, 2.43015442e+02, 2.51565460e+02, 8.18126709e+02,
          3.04812805e+02, 3.56680054e+02, 4.04829468e+02, 202.,
          5.23265610e+01, 7.75110840e+02, 9.07550903e+02, 1.49254440e+02,
          3.36381226e+02, 1.18044693e+02, 1.58832849e+03, 1.20453308e+03,
          1.32009985e+03, 4.33666840e+02, 2.82370544e+02, 5.98240051e+02,
          1.94421448e+02, 7.29621948e+02, 1.16019348e+03, 7.78828796e+02,
          5.14060425e+02, 1.58493927e+02, 2.96804077e+02, 5.17724426e+02,
          4.47301636e+02, 9.92245178e+02, 6.12100586e+02, 7.79638916e+02,
          3.73428162e+02, 2.18578873e+02, 4.22498108e+02, 3.04462372e+02,
          1.38430786e+02, 2.95859314e+02, 8.39616211e+02, 7.98825806e+02,
          6.67767517e+02, 5.16474487e+02, 2.68813721e+02 ]
      - [ 4.58170947e+03, 1.26457996e+03, 0., 0., 412., 2.30050812e+02,
          1.82524963e+02, 2.61732819e+02, 5.12982216e+01, 3.53991272e+02,
          1.00832245e+03, 4.35515686e+02, 2.84471130e+01, 2.86007004e+01,
          1.14017534e+01, 3.75590118e+02, 2.87187683e+02, 1.68587967e+02,
          0., 0., 4.03312744e+02, 8.64324768e+02, 1.08336365e+02,
          7.46395416e+01, 5.51638428e+02, 2.89671997e+02, 3.48895142e+02,
          1.18127182e+02, 5.67475159e+02, 3.89196747e+02, 8.06894714e+02,
          7.80696869e+01, 3.63093201e+02, 3.44312531e+02, 7.83016357e+01,
          8.65027924e+01, 2.17786987e+02, 4.58105347e+02, 2.34220734e+02,
          1.92841904e+02, 4.73138123e+02, 4.65267151e+02, 8.43359802e+02,
          2.51667969e+03, 8.04514221e+02, 3.22242188e+02, 2.68579376e+02,
          6.59640961e+01, 1.26154504e+03, 9.87242004e+02, 8.67177063e+02,
          4.70466705e+02, 1.09966125e+03, 1.18933972e+03, 8.31931946e+02,
          1.67347900e+02, 2.09744797e+02, 1.14612488e+02, 7.81150513e+02,
          6.76964172e+02, 1.13385229e+03, 2.51143723e+02, 3.27844788e+02,
          2.59226349e+02 ]
      - [ 4.02819336e+03, 9.62792114e+02, 1.61475601e+02, 8.10431976e+01,
          3.35917877e+02, 2.35989075e+02, 1.89321472e+02, 9.78399429e+01,
          2.38749512e+02, 1.98715851e+02, 2.54766861e+02, 6.87443909e+02,
          1.58857947e+03, 1.66922958e+02, 1.89807312e+02, 9.56615295e+02,
          2.35909766e+03, 2.78153687e+02, 0., 5.64804443e+02,
          1.89313440e+03, 4.04464722e+02, 0., 1.81107712e+01,
          3.11166504e+02, 2.99363953e+02, 4.62036224e+02, 4.06363678e+02,
          82., 2.20222244e+02, 5.23009705e+02, 3.86188647e+03, 24.,
          4.46317688e+02, 2.99943634e+02, 4.88437134e+02, 9.24687134e+02,
          2.64596039e+02, 2.45050903e+03, 1.53881012e+02, 8.78789917e+02,
          3.13847198e+02, 2.76038757e+02, 2.35779980e+03, 1.48208777e+03,
          2.04567245e+02, 1.87073303e+02, 1.61652405e+02, 3.48102478e+02,
          6.38572388e+02, 1.02324725e+03, 1.74822949e+03, 8.11634216e+02,
          6.54361755e+02, 4.65539642e+02, 1.78363953e+02, 4.94053833e+02,
          2.29669464e+02, 3.08341553e+02, 1.25816687e+03, 1.16567175e+03,
          6.85717224e+02, 4.39255463e+02, 1.56235199e+02 ]
      - [ 4.75839453e+03, 5.42328064e+02, 0., 4.46893005e+02,
          7.21199951e+02, 6.82736755e+02, 1.75823776e+02, 1.80316321e+03,
          3.35242340e+02, 2.11729172e+02, 1.65801086e+02, 9.50419312e+02,
          1.00827972e+03, 1.31632553e+02, 1.66716568e+02, 8.07939819e+02,
          5.59180054e+02, 1.78885441e+01, 6.74240265e+01, 3.48620209e+02,
          1.27911987e+03, 8.17571655e+02, 5.13137695e+02, 8.56640747e+02,
          6.07187195e+02, 5.23375000e+02, 3.55503418e+02, 3.30151482e+01,
          4.91204376e+01, 5.61760750e+01, 0., 9.02439453e+02, 0.,
          4.56026825e+02, 4.30410675e+02, 2.00024994e+02, 9.87617859e+02,
          5.79931152e+02, 5.34659729e+02, 5.06058777e+02, 5.34028687e+02,
          2.57154816e+02, 5.29357788e+02, 1.37880798e+03, 2.49152759e+03,
          5.62053894e+02, 1.34736771e+02, 0., 4.74796936e+02,
          6.58386841e+02, 6.60771729e+02, 1.04739502e+03, 1.57667920e+03,
          5.71416931e+02, 2.45783600e+02, 2.11675873e+02, 4.71023010e+02,
          3.45730896e+02, 6.37539490e+02, 3.38298035e+02, 4.70914917e+02,
          3.92324768e+02, 1.09214441e+03, 4.39885406e+02 ]
      - [ 4.98903125e+03, 2.10841724e+03, 5.78014893e+02, 3.55900024e+02,
          6.66027161e+02, 8.98182434e+02, 6.33966248e+02, 6.65364807e+02,
          7.96366943e+02, 4.18452362e+02, 3.59138000e+02, 1.57747693e+03,
          5.93428223e+02, 2.11485352e+02, 0., 5.97810486e+02,
          2.36026733e+03, 9.26421509e+02, 2.39271744e+02, 9.29270325e+02,
          1.28780139e+03, 6.20058289e+02, 2.97876312e+02, 1.59926782e+03,
          1.14397156e+03, 3.06975250e+02, 3.54617676e+02, 3.37790710e+02,
          5.10774139e+02, 5.69692993e+02, 7.35241211e+02, 6.61544739e+02,
          4.74105835e+02, 0., 0., 9.22279816e+01, 1.93245166e+03,
          4.78679590e+03, 2.64564148e+02, 7.89682007e+02, 352.,
          4.24122986e+02, 6.26875671e+02, 8.22033203e+02, 3.89467194e+02,
          4.76730347e+02, 4.07480011e+02, 3.60954071e+02, 208.,
          4.61467316e+02, 1.07639832e+03, 1.47630139e+03, 1.23850366e+03,
          5.05709747e+02, 2.98479858e+02, 4.06725128e+02, 3.22374542e+02,
          1.50146606e+02, 4.62798401e+02, 1.36712500e+03, 1.17495398e+03,
          5.64321533e+02, 3.44779846e+02, 4.12310562e+01 ]
      - [ 3.66799976e+03, 2.79697632e+03, 4.58145569e+02, 1.79565567e+02,
          32., 0., 1.17004280e+02, 1.84514267e+02, 302., 5.88122986e+02,
          5.68491821e+02, 1.90695801e+02, 1.66478430e+03, 2.65913727e+02,
          3.21681641e+02, 4.58280212e+02, 1.53221594e+03, 4.24264050e+00,
          1.60996887e+02, 6.68982910e+02, 4.12883301e+02, 1.24928625e+03,
          0., 5.52268066e+01, 38., 2.90571899e+02, 1.81970856e+02,
          1.54381287e+02, 2.05891174e+02, 2.51192429e+02, 7.82266968e+02,
          5.10753174e+03, 0., 3.00753265e+02, 1.22800659e+02, 0.,
          6.98344116e+02, 2.31952856e+03, 1.56804407e+03, 3.62195435e+02,
          8.01506287e+02, 2.05537140e+02, 4.96903076e+02, 1.85234033e+03,
          8.06464478e+02, 5.57569275e+02, 2.17588928e+02, 2.73545593e+02,
          2.54845154e+02, 5.62961975e+02, 5.37319397e+02, 1.49490491e+03,
          1.49946667e+03, 1.23434196e+02, 6.20131775e+02, 1.35624481e+02,
          5.87953369e+02, 1.55010788e+02, 6.66795532e+02, 7.61266418e+02,
          9.39719421e+02, 1.84432785e+02, 5.46149475e+02, 1.25776482e+02 ]
      - [ 5.26239697e+03, 3.53711035e+03, 7.13994873e+02, 0.,
          2.91811401e+02, 4.24499741e+01, 1.73908035e+02, 3.79539856e+02,
          1.27692192e+02, 4.23833038e+02, 7.18870728e+02, 2.26849136e+02,
          1.12099754e+02, 7.07631149e+01, 0., 2.31328705e+02,
          1.05238232e+03, 6.65132996e+02, 0., 2.91547585e+01,
          6.39136047e+02, 5.76783569e+02, 1.84831146e+02, 0.,
          2.25794571e+02, 2.61999207e+02, 4.74502258e+02, 2.91980377e+02,
          6.88241150e+02, 1.12552864e+02, 1.99708362e+03, 1.18855896e+03,
          1.86045456e+02, 5.78143494e+02, 0., 7.72787170e+01,
          1.97494583e+02, 3.51063538e+02, 3.84044678e+02, 6.79654297e+02,
          1.01102277e+03, 8.55285767e+02, 1.66262085e+03, 1.03571497e+03,
          1.54114905e+03, 7.16126526e+02, 0., 1.76323563e+02,
          4.43008484e+02, 3.16326477e+02, 9.79481934e+02, 6.72892029e+02,
          1.32135608e+03, 1.95772681e+03, 8.35588562e+02, 3.48797424e+02,
          8.58142517e+02, 4.26078857e+02, 1.68638123e+03, 7.80473755e+02,
          1.12486816e+03, 1.06973853e+03, 2.82392273e+02, 0. ]
      - [ 4.03165845e+03, 7.50066681e+01, 5.14450806e+02, 1.97562573e+03,
          6.59646912e+02, 1.77881989e+02, 3.43261597e+02, 1.16969019e+03,
          3.38792114e+03, 1.74718298e+03, 1.16619034e+02, 1.38101410e+02,
          3.67066345e+02, 2.82908966e+02, 5.01628632e+02, 7.49016541e+02,
          4.02273773e+02, 1.66208105e+03, 7.35355530e+02, 4.63833160e+02,
          1.06021278e+02, 9.28039917e+02, 5.93580383e+02, 7.84564575e+02,
          2.82525293e+03, 9.94981308e+01, 1.45629974e+02, 4.26351166e+02,
          1.17961572e+03, 7.45888428e+02, 4.17572296e+02, 1.10033905e+02,
          2., 0., 1.61245155e+01, 0., 2.11717993e+03, 3.26919751e+03,
          2.74618799e+03, 1.40666907e+03, 5.01764160e+02, 7.85493469e+01,
          0., 2.07640900e+02, 1.05663074e+03, 8.80395142e+02,
          5.74854980e+02, 8.92860565e+01, 5.04828369e+02, 1.61033905e+02,
          7.37456421e+02, 1.32942749e+03, 8.83250854e+02, 2.52710037e+02,
          2.81316833e+02, 1.29189246e+03, 1.35010730e+03, 2.10038232e+03,
          6.33640503e+02, 5.65207642e+02, 4.28551392e+02, 7.46860046e+01,
          1.58113871e+01, 5.70087738e+01 ]
      - [ 5.68019385e+03, 8.30681763e+02, 2.07289108e+02, 1.34617981e+02,
          856., 5.18652077e+01, 1.37378998e+02, 9.90607971e+02,
          1.03824438e+03, 3.12823273e+02, 4.44376160e+02, 1.88853699e+03,
          1.37283655e+03, 8.91852036e+01, 8.93249512e+01, 0.,
          5.93246765e+02, 4.64534576e+02, 9.13225098e+02, 7.10022827e+02,
          6.63483826e+02, 1.16440759e+03, 8.49062256e+02, 2.21998932e+02,
          1.07212500e+03, 4.74819702e+02, 3.33788574e+02, 6.95193420e+02,
          6.71752686e+02, 2.57116547e+02, 3.06777466e+02, 3.54682961e+01,
          5.06610947e+01, 1.05888687e+02, 0., 5.50899811e+01,
          8.81592590e+02, 4.24770801e+03, 2.30068530e+03, 2.03749573e+03,
          1.04955737e+03, 5.14003868e+01, 1.42747101e+02, 8.49495056e+02,
          2.26560840e+03, 3.46048248e+02, 2.25542648e+02, 4.83815002e+02,
          5.72970581e+01, 5.13895752e+02, 9.08976135e+02, 1.65507556e+03,
          5.76939697e+02, 3.67211685e+01, 7.35831833e+01, 3.52479065e+02,
          1.33151270e+03, 6.31149048e+02, 7.24690125e+02, 2.44794861e+02,
          1.79162277e+02, 4.25440941e+01, 10., 4.69189453e+01 ]
      - [ 4.78843994e+03, 3.80664233e+03, 5.81341125e+02, 1.37927505e+02,
          294., 1.00657837e+02, 0., 1.53042859e+03, 3.52660303e+03,
          3.86723877e+02, 3.00348511e+02, 1.23125610e+03, 1.70402429e+03,
          1.35003082e+02, 2.79767914e+02, 8.55102310e+01, 1.05316333e+03,
          2.81315643e+02, 4.85714600e+02, 2.40084595e+02, 1.96527344e+03,
          1.04441553e+03, 5.52013184e+02, 1.81679236e+03, 7.32175049e+02,
          1.56384323e+02, 3.26407684e+02, 4.11164734e+02, 2.08606033e+02,
          4.28553558e+02, 4.55657806e+02, 5.37665527e+02, 5.58988403e+02,
          2.30217285e+01, 0., 2.63029510e+02, 9.87578674e+02,
          1.39823181e+03, 1.23782361e+03, 8.38917725e+02, 1.23069739e+03,
          4.72807739e+02, 5.10508667e+02, 1.43970715e+03, 2.34616455e+03,
          3.82905243e+02, 3.81662354e+02, 2.25157837e+02, 8.96632935e+02,
          4.25575439e+02, 6.32282227e+02, 1.58321912e+03, 1.80745996e+03,
          2.77656372e+02, 4.28236633e+02, 7.16502197e+02, 4.83167786e+02,
          1.45243210e+02, 4.74420746e+02, 1.67547937e+03, 1.77101282e+03,
          1.63715302e+02, 2.12701141e+02, 3.14119873e+02 ]
      - [ 4.89258691e+03, 2.55861011e+03, 3.09787750e+02, 0.,
          3.64710693e+02, 7.52991333e+01, 1.02806750e+03, 1.47889124e+03,
          1.31335278e+03, 2.29879547e+02, 5.05832581e+02, 1.81323779e+03,
          3.12436646e+02, 1.36740631e+02, 6.78983231e+01, 4.46120239e+02,
          2.15585864e+03, 8.14370178e+02, 0., 6.65312622e+02,
          1.01975665e+03, 1.51857959e+03, 5.30110840e+02, 4.90914612e+02,
          9.16902344e+02, 3.61835876e+02, 4.43117584e+02, 3.31255005e+02,
          1.62596451e+02, 2.82567596e+02, 6.38917236e+02, 1.74860229e+03,
          82., 3.79578796e+02, 2.89492920e+02, 2.53559875e+02,
          1.01828540e+03, 2.84255835e+03, 1.27679724e+03, 2.80773895e+02,
          6.95427917e+02, 4.12297760e+02, 5.25752869e+02, 7.85449829e+02,
          9.49650085e+02, 3.13035919e+02, 3.07811768e+02, 0.,
          6.21688416e+02, 1.04671375e+03, 7.11270508e+02, 1.61098169e+03,
          1.06267847e+03, 3.57800079e+02, 5.59781128e+02, 2.13637848e+02,
          5.30075623e+02, 2.76682159e+02, 6.71849182e+02, 6.54820251e+02,
          6.26735718e+02, 9.96672974e+02, 4.56403717e+02, 1.29737320e+02 ]
      - [ 3.45025269e+03, 2.33050064e+02, 2.20204437e+02, 1.86035904e+02,
          2.97747284e+02, 0., 1.56769165e+03, 4.68786719e+03,
          1.04363757e+03, 1.01289902e+01, 1.79188614e+01, 1.72691078e+01,
          3.25933441e+02, 7.01305908e+02, 2.27607498e+02, 1.24040321e+02,
          3.73951782e+02, 7.92010498e+02, 0., 6.91230850e+01, 4., 0., 0.,
          1.86795374e+03, 1.84789844e+03, 1.49096344e+02, 3.71359024e+01,
          1.82940186e+02, 2.64653442e+02, 9.16042175e+01, 0.,
          1.19110542e+02, 3.64036652e+02, 3.71643738e+02, 5.15720459e+02,
          6.10583618e+02, 8.60940308e+02, 5.44843262e+02, 3.40474365e+02,
          1.81697815e+02, 3.34974854e+02, 1.23102913e+02, 6.08907776e+01,
          1.22276025e+03, 2.43881665e+03, 1.16910254e+03, 8.05052719e+01,
          9.27779007e+01, 4.53803589e+02, 5.17152283e+02, 9.66240417e+02,
          4.65509308e+02, 1.14811548e+03, 8.53007812e+02, 5.71544914e+01,
          2.71760712e+02, 3.83108978e+02, 4.25310211e+01, 9.95691299e+01,
          8.75925293e+02, 5.86966980e+02, 3.50242981e+02, 3.94389557e+02,
          1.17704956e+02 ]
      - [ 2.91946973e+03, 2.95306372e+03, 6.18978821e+02, 7.72787170e+01,
          1.55853943e+02, 4.95782204e+01, 3.37260071e+02, 3.16227770e+00,
          4.05218323e+02, 7.70253113e+02, 5.32123596e+02, 1.07677231e+02,
          1.63172400e+03, 2.05109833e+02, 8.21972961e+01, 8.68789246e+02,
          1.75911218e+03, 1.71539764e+02, 2.64238770e+02, 2.73521729e+02,
          4.80080505e+02, 1.08754028e+03, 0., 0., 1.01567352e+02,
          2.33362762e+02, 3.18718719e+02, 2.72086304e+02, 6.87943420e+02,
          3.44535095e+02, 2.78443408e+03, 2.23399854e+03, 10.,
          2.26736618e+02, 2.92465942e+02, 7.66550751e+01, 7.45733643e+02,
          2.95262817e+03, 8.55604553e+02, 5.86611694e+02, 7.50661011e+02,
          4.15273621e+02, 5.98160828e+02, 1.27060559e+03, 6.83618469e+02,
          5.39467896e+02, 6.18546715e+01, 2.65543640e+02, 2.19949020e+02,
          3.49720734e+02, 1.00504443e+03, 7.30505249e+02, 1.02556604e+03,
          3.05979370e+02, 3.92748260e+02, 3.02191406e+02, 4.16890991e+02,
          3.13392242e+02, 5.96364380e+02, 1.61635022e+03, 1.26306299e+03,
          3.29619141e+02, 4.56455658e+02, 6.16116905e+01 ]
      - [ 1.47549146e+03, 2.97601929e+02, 7.84091873e+01, 0.,
          2.38367279e+02, 1.01518478e+02, 4.38488617e+02, 1.98807458e+03,
          1.46773865e+03, 9.08075012e+02, 9.98870239e+01, 7.98925476e+01,
          2.02638306e+02, 5.42956482e+02, 7.05625916e+02, 2.74590607e+01,
          46., 9.30488525e+02, 0., 4.55616882e+02, 84., 9.47945175e+01,
          1.17976611e+03, 8.87470093e+02, 1.27625635e+03, 4.33916855e+01,
          1.75468246e+02, 1.94046127e+02, 4.97693848e+02, 2.64584618e+01,
          1.13137083e+01, 1.70103271e+02, 3.37979553e+02, 5.17749451e+02,
          1.30923889e+02, 5.30094299e+01, 9.45158081e+02, 1.17317651e+03,
          6.68968872e+02, 1.54116837e+02, 5.55328247e+02, 5.59716003e+02,
          6.55557556e+02, 1.02752734e+03, 1.24701343e+03, 8.85506042e+02,
          1.83718597e+02, 2.50895554e+02, 4.79141052e+02, 5.77438904e+02,
          1.13340076e+03, 1.63804089e+03, 8.89220337e+02, 1.35888501e+03,
          3.10688660e+02, 2.51793575e+01, 2.03283875e+02, 2.83431854e+02,
          2.57640564e+02, 4.96637604e+02, 1.11223792e+03, 2.16887711e+02,
          2.55595276e+02, 2.06324844e+02 ]
      - [ 4.21719336e+03, 2.63957104e+03, 8.34862915e+02, 7.94242981e+02,
          64., 0., 0., 0., 292., 5.52660461e+02, 8.06142700e+02,
          1.19792017e+03, 8.40055115e+02, 3.86198181e+02, 4.96201508e+02,
          1.27886505e+02, 1.71032507e+03, 0., 6.03533142e+02,
          5.08947052e+02, 1.74166846e+03, 3.74222137e+02, 2.00897980e+02,
          2.20819214e+02, 3.70727966e+02, 4.35589905e+02, 2.78476013e+02,
          1.46263168e+02, 4.59379761e+02, 1.70372894e+02, 2.33132007e+03,
          3.10194678e+03, 3.09337952e+02, 1.34618622e+02, 0.,
          8.29032471e+02, 2.09719580e+03, 1.07115613e+03, 7.23939575e+02,
          4.91091309e+02, 7.24237122e+02, 5.44320618e+02, 9.03688782e+02,
          1.10294971e+03, 1.60539844e+03, 5.84107178e+02, 5.07941132e+02,
          3.74876770e+02, 3.37111603e+02, 6.93378296e+02, 7.35798462e+02,
          1.71735840e+03, 1.36812476e+03, 7.89892517e+02, 4.33316864e+02,
          3.98497162e+01, 3.67311859e+02, 3.64258179e+02, 5.94967834e+02,
          1.90126245e+03, 1.82275610e+03, 3.25229614e+02, 4.35138153e+02,
          1.28448761e+02 ]
      - [ 1.96635315e+03, 2.89475366e+03, 2.34744995e+03, 6.21984596e+01,
          350., 0., 4.77317780e+02, 2.68915070e+02, 2., 2.18862244e+02,
          5.65003540e+02, 1.04326404e+03, 42., 2.84253387e+01, 0.,
          1.70293865e+01, 9.05117432e+02, 0., 2.97321358e+01, 0.,
          3.54093628e+02, 1.46686658e+03, 1.91452682e+02, 1.20290771e+02,
          3.04001770e+02, 8.60004730e+01, 2.40876465e+02, 5.07367645e+02,
          5.95188538e+02, 6.23825012e+02, 1.45164673e+02, 7.37497009e+02,
          1.42497620e+02, 2.33238068e+01, 6.29376892e+02, 2.53189484e+02,
          492., 1.79108917e+02, 1.84850439e+03, 6.69830261e+02,
          8.47884766e+02, 5.27123413e+02, 7.43084717e+02, 1.96566663e+03,
          1.95059961e+03, 0., 1.42926163e+02, 1.19816521e+02,
          8.21213867e+02, 2.94837311e+02, 1.31147998e+03, 1.01976715e+03,
          1.21042297e+03, 9.65121277e+02, 8.57549438e+02, 1.94237671e+02,
          4.31123718e+02, 6.94296570e+02, 3.43612701e+02, 7.50341797e+02,
          6.15553589e+02, 6.96295837e+02, 0., 1.21457809e+02 ]
      - [ 4.02040820e+03, 1.82685449e+03, 9.45306152e+02, 1.62421066e+02,
          1.83115280e+02, 4.42033203e+02, 1.17345650e+02, 7.86330109e+01,
          3.84707680e+01, 2.60000019e+01, 4.49668274e+02, 9.07576416e+02,
          1.33884387e+03, 3.57215088e+02, 2.51254013e+02, 5.23082336e+02,
          2.03816528e+03, 3.50740662e+02, 6.82242310e+02, 5.17942505e+02,
          2.02107434e+03, 1.08519727e+03, 3.55670990e+02, 2.74545319e+02,
          4.51711517e+02, 5.98177643e+01, 2.97337860e+02, 3.67695541e+01,
          2.51044357e+02, 1.28253311e+02, 3.25846436e+02, 8.50336914e+02,
          2., 3.76103546e+02, 3.20249939e+02, 1.32966156e+02,
          8.85791687e+02, 6.19549683e+02, 3.16414282e+03, 7.14479248e+02,
          1.18907349e+03, 2.18175919e+02, 4.32901184e+02, 2.16472900e+03,
          1.31932532e+03, 4.02243690e+01, 3.56819824e+02, 1.12406708e+02,
          3.45160431e+02, 4.58727692e+02, 1.25524817e+03, 3.13524353e+02,
          1.13418250e+03, 7.22668274e+02, 3.85960754e+02, 2.54709595e+02,
          1.84893768e+02, 2.07837524e+02, 6.58018677e+02, 2.34000671e+02,
          9.96223328e+02, 5.58321533e+02, 1.37360840e+02, 2.80867767e+02 ]
      - [ 2.17548486e+03, 1.30735864e+03, 5.39073257e+01, 0.,
          2.73037201e+02, 1.42667450e+02, 3.03662537e+02, 2.17497607e+03,
          1.42927002e+03, 5.52660461e+02, 4.47213602e+00, 6.32455540e+00,
          3.22768188e+02, 7.97345154e+02, 4.06810730e+02, 3.08172028e+02,
          1.55202942e+02, 7.64085083e+02, 3.93665039e+02, 3.95238159e+02,
          1.62163391e+02, 8.14002457e+01, 5.91225220e+02, 1.11034924e+03,
          1.00670624e+03, 3.46386322e+02, 3.36407738e+01, 6.89016602e+02,
          2.10968369e+02, 1.61607513e+02, 1.11022789e+02, 0.,
          6.37204346e+02, 1.94565659e+02, 0., 1.83847771e+01, 304.,
          3.13550781e+02, 1.74173325e+02, 8.01372925e+02, 5.62130066e+02,
          4.63579742e+02, 4.07583374e+02, 1.23086975e+03, 3.32553052e+03,
          2.90881104e+02, 2.01443237e+02, 5.05482483e+02, 3.94525543e+02,
          4.52195251e+02, 6.33693420e+02, 2.58739136e+03, 1.22787769e+03,
          6.96423462e+02, 3.31084045e+02, 2.16268875e+02, 3.29935272e+02,
          1.17153107e+02, 1.11907639e+02, 4.54134460e+02, 6.86534180e+02,
          5.45905457e+02, 5.00860840e+02, 1.28144913e+02 ]
      - [ 2.83945532e+03, 3.24680206e+02, 0., 0., 340., 0.,
          1.41421354e+00, 0., 5.63325928e+03, 3.37995300e+02,
          2.25091446e+02, 2.72349625e+01, 9.71964188e+01, 5.07970772e+01,
          9.70870972e+02, 2.45297424e+02, 4.21743011e+02, 1.22994873e+03,
          4.22549438e+02, 1.00713051e+02, 18., 0., 0., 3.40644189e+03,
          1.22398950e+03, 1.43162327e+01, 2.16619034e+01, 2.54255020e+02,
          4.01116150e+02, 1.15879959e+02, 0., 5.09901953e+00,
          4.40015442e+02, 4.42348877e+02, 2.58337677e+02, 0.,
          4.02881378e+02, 7.21110249e+00, 2.58328125e+02, 9.85376343e+02,
          8.34558044e+02, 6.59527588e+01, 5.63136658e+02, 6.33587769e+02,
          1.29589185e+03, 7.94828247e+02, 7.91986877e+02, 1.30321152e+02,
          7.64809204e+02, 6.59859619e+02, 4.14666504e+02, 2.89312347e+02,
          5.85125000e+02, 1.44402026e+03, 1.88243530e+02, 2.29149628e+02,
          48., 1.29213562e+02, 2.71036499e+02, 3.81144775e+02,
          5.70544128e+02, 5.79085632e+02, 3.80264435e+02, 1.56051270e+02 ]
      - [ 3.04798877e+03, 3.02295020e+03, 3.39532684e+02, 0., 648.,
          3.31327942e+02, 4.10635040e+02, 1.65926254e+02, 5.01998718e+02,
          4.34368073e+02, 5.84235291e+02, 9.78284180e+02, 1.68991043e+02,
          1.12931839e+02, 4.32046509e+01, 3.28937683e+01, 5.17386971e+01,
          1.17868523e+02, 1.14164612e+02, 3.70135117e+01, 1.60963364e+02,
          1.01251208e+03, 1.91372681e+02, 2.01756653e+02, 4.64533844e+02,
          5.77706665e+02, 1.88794287e+03, 7.32276794e+02, 6.36138916e+02,
          2.81780052e+01, 34., 2.59615097e+01, 0., 9.10999756e+01,
          9.00064331e+02, 1.67958771e+02, 4.59808685e+02, 3.98439087e+02,
          6.32645874e+01, 4.77738892e+02, 4.17890869e+02, 6.10923035e+02,
          3.47474121e+02, 3.30217944e+03, 2.20034912e+03, 3.30023865e+02,
          0., 7.07106829e+00, 9.22631470e+02, 8.32561646e+02,
          6.93923706e+02, 1.15443860e+03, 1.51455359e+03, 5.43797607e+01,
          1.14334387e+03, 4.89731232e+02, 4.31521149e+02, 3.24920624e+02,
          1.01584705e+03, 3.08128052e+02, 1.45728076e+03, 6.75711975e+02,
          5.15912659e+02, 4.10411652e+02 ]
      - [ 3.91466113e+03, 2.53718155e+02, 0., 0., 2.36433136e+02,
          2.26142212e+02, 8.44845825e+02, 3.56728540e+03, 2.54740234e+03,
          0., 4.29351898e+02, 5.94378540e+02, 2.32851883e+02,
          9.64635193e+02, 6.20349121e+02, 5.84466858e+02, 1.85141327e+02,
          1.65327490e+03, 6.08644897e+02, 0., 0., 7.30982483e+02,
          6.00772827e+02, 3.13885864e+03, 1.07259766e+03, 1.77753510e+02,
          3.65791260e+02, 1.18524548e+03, 2.01855988e+02, 0., 0., 0.,
          6.23234680e+02, 4.16494522e+01, 2.44131126e+01, 3.73363113e+01,
          5.54198059e+02, 2.24459366e+02, 1.24053931e+03, 8.41492737e+02,
          8.11192993e+02, 1.46264435e+02, 1.38283371e+02, 8.98161926e+02,
          2.47938379e+03, 7.81833252e+02, 3.62348450e+02, 2.01041779e+02,
          5.08051270e+02, 8.24621124e+01, 1.35651880e+03, 8.43608948e+02,
          6.58804688e+02, 3.98132294e+02, 0., 4.72652092e+01,
          3.23618317e+02, 1.94803268e+02, 1.78117599e+02, 4.40061249e+02,
          8.03604065e+02, 1.24735718e+03, 3.33118378e+02, 4.79933105e+02 ]
      - [ 540., 1.30176611e+03, 4.62181592e+03, 1.28736572e+03,
          9.51552917e+02, 3.67151184e+01, 3.74400269e+02, 3.05896454e+02,
          6.09506378e+01, 7.70065002e+01, 1.43762378e+03, 5.34222534e+02,
          0., 0., 5.65685415e+00, 0., 4.98357147e+02, 1.73565018e+02, 0.,
          7.02139587e+01, 4.48041107e+02, 1.43685193e+03, 1.68521835e+02,
          1.57706635e+02, 80., 4.06745239e+02, 4.62599274e+02,
          3.04261230e+02, 6.37432251e+02, 9.73822632e+01, 4.90025269e+02,
          3.80295288e+02, 1.78290527e+02, 6.87493042e+02, 7.32382019e+02,
          7.22852539e+02, 2.28898657e+03, 2.92140137e+02, 5.16412842e+02,
          3.00677910e+01, 2.87911713e+02, 1.73541367e+02, 2.81989777e+02,
          2.68846948e+03, 1.58071094e+03, 0., 8.33546677e+01,
          4.27551155e+01, 2.22621094e+03, 5.72835815e+02, 9.97563416e+02,
          7.93923706e+02, 1.12004126e+03, 1.19716479e+03, 5.88587402e+02,
          5.99301880e+02, 3.14271790e+02, 0., 3.39633850e+02,
          4.49558167e+02, 9.62658508e+02, 4.57955444e+02, 2.74321075e+02,
          4.91422668e+02 ]
      - [ 3.21203198e+03, 3.93954315e+01, 1.96209061e+02, 4.86768127e+02,
          7.46037720e+02, 5.11808228e+02, 4.06013550e+02, 1.92915710e+02,
          6.48123108e+02, 2.37930511e+02, 1.37200592e+02, 6.69317627e+02,
          2.08096289e+03, 1.92611877e+02, 1.84982666e+02, 3.49581836e+03,
          2.38294922e+02, 1.36814880e+02, 1.09816757e+02, 5.33612610e+02,
          1.75815735e+03, 8.81613342e+02, 8.59620361e+02, 1.38386243e+03,
          8.16013672e+02, 4.87955414e+02, 6.42526978e+02, 4.55231812e+02,
          2.43038696e+02, 2.54794189e+02, 3.08892151e+02, 1.75929138e+02,
          30., 3.14006348e+01, 3.81996796e+02, 1.84390888e+01, 166., 0.,
          7.67219849e+01, 1.40502563e+03, 8.04198181e+02, 3.94672028e+02,
          8.76856140e+02, 2.64358789e+03, 1.36463586e+03, 6.60214661e+02,
          2.58069763e+01, 4.45803680e+02, 5.66985352e+02, 6.15875671e+02,
          4.48617828e+02, 1.70227332e+03, 6.61170349e+02, 1.95808502e+02,
          2.31050430e+02, 6.75486206e+02, 2.05178711e+02, 3.69625854e+02,
          4.57148438e+02, 8.55106628e+02, 8.95629761e+02, 1.37892944e+03,
          3.83079681e+02, 3.71296906e+02 ]
      - [ 1.85975317e+03, 4.05185352e+03, 2.45587354e+03, 1.07584717e+02,
          912., 4.96363220e+01, 0., 5.41479454e+01, 2.55420288e+02,
          7.65194214e+02, 2.32184888e+03, 9.47057312e+02, 2.03530807e+02,
          8.60232544e+00, 0., 1.24644257e+02, 3.48314301e+02, 0., 0., 0.,
          1.35963928e+03, 2.11815356e+03, 4.72705078e+02, 0., 302.,
          1.23552559e+02, 8.02361450e+02, 8.00687988e+02, 6.78554626e+02,
          2.46168808e+02, 2.72487488e+02, 1.29835571e+03, 1.22382153e+03,
          5.85823303e+02, 0., 0., 238., 0., 3.81327759e+02,
          6.62288086e+02, 1.13640100e+03, 4.14091370e+02, 1.22907129e+03,
          9.94352173e+02, 2.44454590e+03, 3.94430298e+02, 4.48353973e+02,
          5.64720520e+02, 1.21781628e+03, 1.56916040e+03, 1.43956592e+03,
          8.96055420e+02, 7.55800720e+02, 4.96564880e+02, 1.75847742e+03,
          3.07858307e+02, 4.33316315e+02, 1.64695068e+02, 1.01538739e+03,
          5.27396545e+02, 1.41657849e+03, 3.95483856e+02, 6.23343689e+02,
          0. ]
      - [ 5.12440430e+03, 7.50993530e+02, 4.50402710e+02, 3.87322266e+02,
          9.71457275e+02, 0., 0., 0., 0., 0., 0., 4.70956497e+01,
          1.09818335e+03, 8.02126099e+02, 3.52690735e+02, 5.65288635e+02,
          1.92809937e+03, 7.35527039e+01, 5.29447388e+02, 5.09217102e+02,
          9.74246765e+02, 6.98569946e+01, 6.22414665e+01, 0., 92.,
          2.72563843e+02, 3.77489990e+02, 4.41017242e+02, 5.42053284e+02,
          1.87334641e+02, 1.87879846e+03, 3.82815259e+03, 2.24004913e+02,
          5.76934082e+02, 0., 1.02420692e+02, 7.06629822e+02,
          4.88153992e+02, 1.22400647e+03, 1.22995142e+03, 9.02526794e+02,
          5.13022339e+02, 5.93149902e+02, 1.86609131e+03, 1.33679773e+03,
          4.30813843e+02, 2.44176422e+02, 1.13322548e+02, 1.61814728e+02,
          4.57876099e+02, 2.72817230e+02, 7.72967407e+02, 1.39719604e+03,
          3.76928375e+02, 3.26775452e+02, 3.40864258e+02, 5.18688171e+02,
          2.96599396e+02, 7.03577209e+02, 1.55419336e+03, 1.43386377e+03,
          4.89736816e+02, 2.24337112e+02, 6.98878784e+01 ]
      - [ 4.05728003e+03, 1.73444727e+03, 7.09715271e+02, 2.74590607e+01,
          6.53365112e+02, 5.64449707e+02, 0., 0., 190., 3.29426819e+02,
          1.84201508e+02, 1.69636230e+03, 7.01410156e+02, 8.95544586e+01,
          2.19003082e+02, 9.81442566e+02, 1.51121472e+03, 7.07570068e+02,
          4.86197235e+02, 6.22053833e+02, 1.87435083e+03, 1.13031384e+03,
          5.38811157e+02, 5.30848389e+01, 8.40788269e+02, 9.65411911e+01,
          5.88602356e+02, 2.99575378e+02, 8.52843872e+02, 1.78731720e+02,
          1.05952808e+03, 4.23720459e+02, 3.53583923e+02, 2.08314194e+02,
          3.15345398e+02, 1.40866406e+03, 8.65679199e+02, 1.17643054e+03,
          4.41375427e+02, 4.98303650e+02, 4.70057556e+02, 2.52692398e+02,
          5.05102112e+02, 1.34092358e+03, 1.46983472e+03, 6.76067993e+02,
          1.82603394e+02, 1.88663727e+02, 5.49958008e+02, 3.71381287e+02,
          1.13354089e+03, 5.00086487e+02, 4.77174072e+02, 3.49997833e+02,
          6.23507080e+02, 5.07451660e+02, 2.44637085e+02, 8.82043076e+01,
          2.11642029e+02, 1.83191980e+03, 1.14366577e+03, 7.29932861e+02,
          2.28556915e+02, 1.08022957e+02 ]
      - [ 2.78643384e+03, 5.65417822e+03, 0., 0., 4.32892456e+02,
          3.14782410e+02, 1.70895996e+02, 2.96978333e+02, 1.98785461e+02,
          5.30992493e+02, 6.46532349e+02, 1.58083240e+03, 1.72042831e+02,
          0., 0., 1.23823341e+02, 7.71120544e+02, 2.88738464e+02,
          1.30384054e+01, 0., 1.29656018e+03, 1.17017041e+03,
          1.43165482e+02, 0., 1.77852966e+02, 2.82985504e+02, 0.,
          1.07568466e+02, 3.78793243e+02, 3.36871155e+02, 6.19927673e+02,
          2.31608228e+03, 3.82099457e+01, 9.34533569e+02, 5.07545227e+02,
          1.22122887e+02, 462., 1.01862656e+02, 7.96681519e+02,
          5.97381348e+02, 9.78413269e+02, 5.74480286e+02, 9.01464966e+02,
          1.85635144e+03, 2.35191797e+03, 3.19171906e+02, 1.47512711e+02,
          0., 1.44382764e+03, 7.05113708e+02, 1.13305151e+03,
          5.50977478e+02, 392., 2.42624146e+02, 1.48107812e+03,
          8.65589844e+02, 4.45904480e+02, 3.38506195e+02, 4.79718048e+02,
          6.15119873e+02, 1.02918274e+03, 3.35347412e+02, 0.,
          5.34329163e+02 ]
      - [ 3.43986694e+03, 2.87399170e+02, 1.06858444e+02, 3.05019653e+02,
          6.75259155e+02, 0., 0., 4.02606293e+02, 1.33864648e+03,
          8.09598083e+02, 4.98378571e+02, 3.91789856e+02, 3.04028351e+02,
          5.80424255e+02, 2.56305115e+02, 0., 1.14631348e+03,
          3.21320038e+02, 3.72094421e+02, 1.65114334e+02, 4.04111511e+02,
          5.72923096e+02, 6.36362244e+02, 1.47818445e+03, 8.25921692e+02,
          1.95598007e+02, 3.08948547e+02, 5.09215179e+02, 2.66048553e+02,
          2.41704285e+02, 4.83208496e+02, 9.61041107e+01, 1.18000008e+02,
          4.02447014e+01, 1.24065956e+02, 3.55240021e+02, 1.11999292e+03,
          3.56277008e+02, 1.21369214e+03, 2.06563745e+03, 2.81667090e+03,
          1.07473457e+02, 0., 8.23771362e+01, 4.69244354e+02,
          7.55667297e+02, 3.48219086e+02, 0., 3.36448090e+02,
          6.93541641e+01, 1.06357288e+03, 5.54602478e+02, 136.,
          8.96376038e+01, 3.32039108e+01, 9.77430847e+02, 8.82823486e+02,
          1.05461853e+03, 3.25075623e+02, 2.31408798e+02, 4.27372528e+02,
          2.10237961e+01, 8.48528099e+00, 1.93790375e+02 ]
      - [ 2.39099927e+03, 4.22969336e+03, 3.22068634e+02, 3.49295387e+01,
          0., 7.93221283e+01, 2.42997772e+02, 0., 1.33170337e+03,
          2.48785181e+03, 3.25128510e+02, 1.25787317e+03, 1.42553870e+03,
          2.23109711e+02, 1.47648239e+01, 3.59458099e+02, 3.70632642e+03,
          3.95440521e+02, 4.24331055e+02, 5.38356445e+02, 1.55188184e+03,
          3.87749054e+02, 1.67233536e+02, 8.82043076e+01, 102.,
          3.56066345e+02, 6.20391968e+02, 3.39874939e+02, 3.99053711e+02,
          2.27922272e+02, 1.32690659e+02, 2.11949731e+03, 1.44110779e+02,
          4.26252380e+02, 1.73510544e+02, 1.01245148e+02, 4.38117401e+02,
          0., 4.75780731e+02, 8.47243042e+02, 9.32724182e+02,
          2.05899460e+02, 3.81018341e+02, 1.66288391e+03, 2.30676929e+03,
          6.61846008e+02, 3.55431305e+02, 2.18202133e+02, 1.25785301e+02,
          5.59583130e+02, 5.26954468e+02, 1.93268799e+03, 9.73545959e+02,
          1.06395435e+03, 2.40806015e+02, 6.74984436e+02, 2.95352051e+02,
          1.31174881e+02, 5.93550293e+02, 6.12143005e+02, 6.96029053e+02,
          1.02402832e+03, 3.23873535e+02, 2.43907776e+02 ]
      - [ 8.46206421e+02, 5.31267822e+02, 1.67685620e+03, 7.97811813e+01,
          7.17975220e+02, 1.69234070e+02, 2.47178345e+01, 1.00707962e+02,
          2.09001938e+02, 6.93619507e+02, 1.18912390e+03, 1.80440161e+03,
          1.19647110e+02, 0., 4.14711838e+01, 2.78567753e+01,
          1.57297058e+02, 5.71385002e+01, 6.18546715e+01, 1.73036957e+02,
          1.90238806e+03, 9.64552795e+02, 4.18971527e+02, 6.96688385e+01,
          1.97032928e+02, 2.41995453e+02, 1.56655670e+02, 2.40079208e+02,
          5.56906006e+02, 1.31841504e+03, 2.01842972e+02, 4.42718887e+01,
          9.15448364e+02, 5.62982178e+02, 3.41666931e+02, 1.90159561e+02,
          4.15095642e+02, 1.50442535e+02, 1.45000778e+02, 4.66392029e+02,
          5.58180359e+02, 8.15464539e+02, 1.32915735e+03, 1.59635596e+03,
          5.84123840e+02, 5.55551514e+02, 1.09430130e+02, 3.06613098e+02,
          2.73602686e+03, 2.21597290e+02, 1.70526428e+03, 2.93389130e+02,
          7.67413086e+02, 9.12482666e+02, 1.41631909e+03, 3.50446228e+02,
          268., 3.44107361e+02, 1.37637207e+02, 9.65105408e+02,
          3.87151642e+02, 3.76953735e+02, 1.94401672e+02, 3.99013672e+02 ]
      - [ 54., 9.66635437e+01, 2.47178345e+01, 2.94317493e+01, 0., 0.,
          1.14017534e+01, 1.70906658e+01, 3.49904388e+02, 2.30632828e+02,
          1.17806995e+03, 2.46027637e+03, 2.12018237e+03, 7.21110249e+00,
          1.33076508e+02, 1.78459930e+02, 46., 0., 2.64145355e+02,
          1.13480566e+03, 3.00378027e+03, 1.07167358e+03, 3.48783142e+02,
          1.80087067e+02, 6.22260376e+02, 5.20038879e+02, 4.12071991e+02,
          1.16912178e+02, 2.31310074e+02, 1.81467041e+02, 1.26685349e+02,
          2.84605007e+01, 1.30445276e+03, 1.45010376e+03, 3.39802368e+02,
          0., 3.97235382e+02, 1.05246689e+02, 3.29583740e+02,
          4.61151550e+02, 7.58808594e+02, 7.90789246e+02, 1.74040613e+03,
          8.60618713e+02, 9.88045776e+02, 3.20025696e+02, 9.30060669e+02,
          4.60112183e+02, 1.95283325e+03, 9.66223572e+02, 9.71338318e+02,
          1.05990570e+02, 2.71737915e+02, 4.37131622e+02, 1.38129309e+03,
          2.85183075e+02, 5.29598206e+02, 8.52122803e+01, 0.,
          7.68251038e+02, 1.93580676e+03, 2.42310394e+02, 4.81963928e+02,
          1.23229236e+03 ]
      - [ 4.35278564e+03, 9.19462097e+02, 4.81240967e+02, 5.55630798e+02,
          8.23061584e+02, 2.29685944e+02, 1.56883316e+02, 9.94354004e+02,
          1.74041101e+03, 5.95248657e+02, 0., 7.50693970e+02,
          5.84487183e+02, 1.54828949e+02, 2.50599289e+01, 0.,
          3.57910425e+03, 4.12903137e+02, 0., 1.53055542e+02,
          1.03588623e+03, 1.56978101e+03, 6.61506897e+02, 7.95705383e+02,
          6.39566040e+02, 3.08729675e+02, 1.34521973e+03, 3.37284515e+02,
          1.51217377e+02, 1.40535141e+02, 1.88381433e+03, 1.76109387e+03,
          3.00236145e+02, 1.77241318e+02, 9.57705612e+01, 1.00026099e+03,
          1.60341357e+03, 1.55100439e+03, 7.34537231e+02, 4.38373016e+02,
          5.50162476e+02, 9.26498795e+01, 1.04861816e+02, 3.05235748e+02,
          5.93100342e+02, 7.03846588e+01, 5.71446228e+02, 2.09161499e+02,
          5.47299683e+02, 8.69610107e+02, 1.08530701e+03, 9.21039612e+02,
          1.17188684e+03, 2.04126648e+02, 5.29801636e+02, 3.17233948e+02,
          4.94757904e+02, 6.24485352e+02, 5.13091797e+02, 4.90685455e+02,
          1.08606873e+03, 1.01419269e+03, 7.02360107e+02, 1.38160202e+02 ]
      - [ 3.94024609e+03, 8.70862610e+02, 3.25756500e+02, 0., 406.,
          7.66941986e+01, 3.97863129e+02, 2.10242236e+03, 2.79048242e+03,
          7.13460999e+02, 1.81252136e+02, 1.14235744e+01, 4.05225945e+01,
          1.44543549e+02, 4.14550232e+02, 5.51372620e+02, 2.16466995e+02,
          8.57071899e+02, 2.87141083e+02, 4.74422119e+02, 4.15430450e+02,
          1.70182251e+02, 3.72453064e+02, 9.72247559e+02, 1.08532056e+03,
          2.18215775e+02, 3.59103943e+02, 7.74605774e+02, 2.47839081e+02,
          7.61577368e+00, 3.67695541e+01, 0., 9.06848816e+02,
          5.98004578e+02, 1.89453766e+02, 3.10161228e+01, 6.10127808e+02,
          1.14887634e+02, 1.72745374e+03, 4.05139496e+02, 558.,
          4.03246704e+02, 1.61245155e+01, 5.65196899e+02, 3.07324756e+03,
          2.45541016e+02, 1.06963989e+02, 5.12790588e+02, 2.35007217e+02,
          1.71618820e+02, 5.25534424e+02, 2.51168530e+03, 5.86315613e+02,
          6.80400146e+02, 6.39430603e+02, 4.05766510e+02, 1.35540665e+02,
          9.65942078e+01, 1.77586624e+02, 3.40605011e+02, 7.66206299e+02,
          8.13019104e+01, 4.60765411e+02, 5.16393921e+02 ]
      - [ 6.46260742e+02, 5.90068787e+02, 1.14665085e+02, 7.14257202e+01,
          4.70544342e+02, 1.05286407e+02, 0., 0., 4.07519928e+02,
          8.89872742e+02, 1.04366040e+03, 4.83982208e+02, 244.,
          7.70906525e+01, 6.64146729e+02, 4.95781677e+02, 2.19241150e+02,
          1.99943176e+02, 1.28606079e+02, 1.66231216e+02, 3.04460632e+02,
          1.10942542e+03, 1.03190027e+03, 1.18082504e+02, 5.60525932e+01,
          2.19192764e+02, 3.37938568e+02, 1.26716537e+02, 3.46027771e+02,
          1.44593399e+02, 6.44020569e+02, 2.55843674e+02, 8.58166199e+02,
          0., 6.30449448e+01, 0., 1.54051697e+02, 3.03053833e+02,
          2.59472900e+02, 7.33604004e+02, 1.01899420e+03, 2.60473663e+02,
          1.20931018e+03, 8.17981384e+02, 1.23982349e+03, 3.61555939e+02,
          4.27857147e+02, 1.19401099e+03, 1.20844702e+03, 1.60851160e+03,
          6.91581848e+02, 4.12697571e+02, 5.17453613e+02, 8.83979675e+02,
          8.11029053e+02, 1.43297729e+03, 7.79219849e+02, 1.98320312e+02,
          3.12777527e+02, 5.74712769e+02, 1.07273328e+03, 6.40780792e+01,
          1.54262451e+02, 2.13156876e+02 ]
      - [ 1.08766040e+03, 2.08499170e+03, 1.74330261e+03, 3.34530151e+02,
          7.43105530e+02, 6.12698936e+01, 1.96420166e+02, 0., 70.,
          3.39653229e+02, 3.59469055e+02, 3.24117188e+03, 1.60421326e+02,
          0., 7.40723114e+01, 7.88542938e+01, 2.23045364e+02, 0.,
          1.42296265e+02, 7.22446411e+02, 1.80165955e+03, 1.80316223e+03,
          5.30175659e+02, 7.64852905e+01, 5.00417725e+02, 8.28452942e+02,
          1.43888257e+03, 2.11050949e+02, 3.32339203e+02, 9.09196701e+01,
          1.42126694e+01, 1.58113871e+01, 6.35538879e+02, 5.84271118e+02,
          3.44184235e+02, 5.70087738e+01, 3.31931763e+02, 1.22486664e+02,
          4.44692902e+02, 1.44520654e+03, 1.07801709e+03, 4.90104797e+02,
          1.13665613e+03, 1.92818384e+03, 7.89030029e+02, 2.66170532e+02,
          1.15004341e+02, 2.60911530e+02, 9.37742554e+02, 1.17517639e+03,
          1.19506592e+03, 6.07838074e+02, 1.58417639e+03, 0.,
          6.69635254e+02, 9.33976807e+02, 3.88031250e+02, 9.43398132e+01,
          1.64041901e+02, 9.04108154e+02, 1.02665222e+03, 7.37769531e+02,
          4.69371429e+02, 2.75816467e+02 ]
      - [ 8.12496887e+02, 3.80894629e+03, 3.43063525e+03, 1.77974426e+02,
          9.16182251e+02, 0., 7.21110249e+00, 1.45602188e+01,
          7.97621460e+01, 1.46649246e+02, 2.00403442e+03, 1.11831360e+03,
          6., 4.25012207e+01, 0., 0., 7.28161255e+02, 0., 1.32032791e+02,
          1.32988495e+02, 2.15743628e+03, 6.51041443e+02, 5.11501251e+02,
          3.88465210e+02, 1.34221039e+02, 7.90687408e+01, 8.14718475e+01,
          1.48286041e+02, 7.02310059e+02, 5.50773010e+02, 5.44767761e+02,
          6.65804688e+02, 5.77962280e+02, 3.87743225e+02, 80.,
          9.67987595e+01, 6.24187500e+02, 9.30534790e+02, 1.99175342e+03,
          1.26045667e+03, 1.05778723e+03, 1.27178491e+03, 7.68450195e+02,
          9.74435303e+02, 8.90804810e+02, 3.12257782e+02, 4.78710236e+02,
          2.39052307e+02, 3.08225250e+02, 1.26903979e+03, 1.08052185e+03,
          5.25579895e+02, 1.15210437e+03, 8.05659241e+02, 1.66539038e+03,
          2.94402863e+02, 7.38770325e+02, 3.33038361e+02, 6.56048813e+01,
          6.63482544e+02, 1.25268176e+03, 5.83702759e+02, 1.46533234e+02,
          0. ]
      - [ 7.65894434e+03, 1.14752576e+03, 4.10515533e+02, 3.84448425e+02,
          1.17520911e+03, 6.60302963e+01, 2.19544983e+02, 1.43581836e+03,
          1.51640771e+03, 7.67788940e+02, 1.04958154e+03, 4.73999146e+02,
          2.10237961e+01, 4.59649048e+02, 1.00742126e+03, 2.54799347e+02,
          2.53005402e+02, 1.44797449e+03, 9.05078506e+01, 9.16187317e+02,
          4.52194183e+02, 3.75761414e+02, 7.63101196e+02, 9.92651978e+02,
          5.47190491e+02, 3.94184570e+02, 2.72025940e+02, 4.40161041e+02,
          2.93307831e+02, 2.64767548e+02, 2.57532898e+02, 1.07870293e+02,
          3.83023804e+02, 9.89949512e+00, 6.68927673e+02, 2.26546906e+02,
          8.74967041e+01, 1.37874680e+02, 2.36461865e+03, 3.46859521e+03,
          2.16752319e+03, 7.97617432e+02, 3.37831329e+02, 2.98811621e+03,
          8., 8.90505447e+01, 0., 1.36059540e+02, 2., 1.81570923e+02,
          1.85607117e+02, 1.94846069e+03, 1.78437012e+03, 1.34538562e+03,
          3.11429004e+03, 5.41902832e+02, 5.10574402e+02, 5.80867981e+02,
          3.28295746e+02, 4.12315247e+02, 2.54572281e+02, 1.03300446e+02,
          2.23606815e+01, 0. ]
      - [ 3.87442285e+03, 4.28489600e+03, 3.34889587e+02, 5.86925659e+01,
          158., 1.47648239e+01, 2.18545914e+02, 3.19903534e+02,
          3.47209290e+02, 4.79159882e+02, 4.65285645e+02, 6.25935059e+02,
          3.93192062e+01, 2.30217285e+01, 0., 7.27052536e+01,
          8.35240417e+02, 3.97172333e+02, 7.07794952e+01, 1.55081802e+02,
          9.47018433e+02, 9.70266113e+02, 3.56044189e+02, 0.,
          4.22344856e+01, 0., 8.94427204e+00, 4.17612267e+01,
          6.90872742e+02, 3.78747406e+02, 7.53397461e+02, 2.32020166e+03,
          8.16752930e+02, 7.59624390e+02, 4.59316772e+02, 0.,
          6.72478882e+02, 1.13228302e+02, 7.48295715e+02, 5.80543762e+02,
          1.10796448e+03, 8.25359314e+02, 5.73865723e+02, 1.03482996e+03,
          1.23942480e+03, 7.09983643e+02, 8.67640457e+01, 3.06280243e+02,
          1.48651147e+03, 6.97278748e+02, 8.52362427e+02, 2.41843948e+02,
          6.73493042e+02, 5.08082367e+02, 1.11425366e+03, 4.46156769e+02,
          4.10672668e+02, 3.72972992e+02, 3.91946930e+02, 5.21007568e+02,
          8.41204651e+02, 3.97930267e+02, 2.39886566e+02, 1.75821259e+02 ]
      - [ 6.13722510e+03, 1.26945569e+03, 5.39465027e+02, 1.14523941e+02,
          7.16227770e+00, 9.85740967e+01, 1.41421354e+00, 5.09901953e+00,
          4.24749268e+02, 1.94781967e+02, 0., 1.01517126e+03,
          3.98220093e+02, 6.67860962e+02, 8.42021332e+01, 2.65048126e+02,
          3.23465137e+03, 3.09315704e+02, 3.54008484e+02, 1.27826996e+02,
          6.55041138e+02, 9.36396240e+02, 2.91547585e+01, 5.18652077e+01,
          2.57043701e+02, 1.34280777e+02, 2.56745972e+02, 1.55764893e+02,
          6.36468849e+01, 4.10744537e+02, 1.26650342e+03, 2.45085815e+03,
          2.68323883e+02, 6.86901169e+01, 8.56077652e+01, 1.94030014e+02,
          9.97974609e+02, 1.47797363e+03, 7.97778564e+02, 3.86014771e+02,
          1.12840613e+03, 4.91353027e+02, 1.13922046e+03, 5.38043579e+02,
          1.08802173e+03, 8.66797913e+02, 3.64912811e+02, 4.11717316e+02,
          7.31611084e+02, 2.90796387e+02, 4.86223083e+02, 7.28454956e+02,
          1.07456055e+03, 3.00757721e+02, 2.81457947e+02, 5.45730042e+02,
          168., 4.97208740e+02, 1.48618362e+02, 1.43619934e+03,
          1.00276392e+03, 2.32116119e+02, 1.61181000e+02, 1.97736206e+02 ]
      - [ 3.28233582e+02, 5.39455957e+03, 9.73199829e+02, 2.94316681e+02,
          6.33352844e+02, 6.25287903e+02, 2.52140167e+02, 7.50599747e+01,
          1.23732452e+02, 0., 5.63784370e+01, 1.39978561e+02,
          1.51622772e+01, 1.30420542e+01, 5.13628426e+01, 5.09901953e+00,
          1.12318628e+03, 1.88262909e+02, 0., 1.57510483e+02,
          2.74828278e+02, 1.94276199e+02, 2.11188400e+02, 6.72447357e+01,
          0., 1.52315474e+01, 0., 0., 7.66263794e+02, 1.52850806e+03,
          1.60567102e+03, 2.66741992e+03, 8.33672241e+02, 1.22201794e+03,
          1.11385083e+03, 2.92863007e+02, 2.35869446e+02, 3.05286751e+01,
          4.66709366e+01, 1.62010635e+02, 2.34461304e+02, 3.49084930e+02,
          8.65264465e+02, 2.12419629e+03, 1.61129932e+03, 3.00000019e+01,
          4.07185440e+01, 4.72669029e+01, 1.71347260e+02, 4.44292572e+02,
          1.52882336e+03, 6.48781860e+02, 1.05428369e+03, 2.30219141e+03,
          9.05096664e+01, 1.04644188e+02, 1.09468300e+02, 1.84390888e+01,
          2.06736572e+02, 3.28055939e+02, 1.45833997e+03, 3.44504883e+02,
          4.44072075e+01, 0. ]
      - [ 6.73826050e+02, 4.73106812e+02, 7.21110249e+00, 5.93047791e+02,
          7.38619080e+02, 6.89945984e+02, 6.93862671e+02, 1.65140671e+02,
          5.56714209e+03, 1.43371826e+03, 5.45927582e+01, 5.09901953e+00,
          656., 0., 1.00165386e+01, 0., 1.81308667e+03, 1.84489899e+02,
          1.30361038e+02, 1.29691940e+02, 1.00020401e+02, 2.51994263e+02,
          3.18417053e+02, 5.95891663e+02, 3.66038116e+02, 2.54687424e+02,
          1.59828568e+02, 1.37852310e+02, 7.34544189e+02, 1.31185950e+03,
          1.23109705e+03, 1.51163977e+03, 3.20649634e+03, 3.18107275e+03,
          3.34759497e+03, 1.26491108e+01, 1.54324554e+02, 4.87647438e+01,
          0., 2.01075836e+02, 3.63885254e+02, 6.08879456e+02,
          6.07663086e+02, 1.38672192e+03, 7.50893799e+02, 7.55558624e+01,
          1.44222050e+01, 8.67367859e+01, 7.19751099e+02, 3.24413940e+02,
          8.02620697e+01, 4.27311066e+02, 7.09190491e+02, 1.65362451e+03,
          1.77490372e+02, 8.99756165e+01, 4.51810669e+02, 6.54641174e+02,
          2.32738876e+02, 1.04778931e+02, 5.07234497e+02, 8.22607422e+02,
          7.62714722e+02, 9.73559448e+02 ]
      - [ 3.26023242e+03, 3.50667993e+03, 1.09590530e+02, 4.92548866e+01,
          294., 7.53446960e+01, 0., 2.23606815e+01, 4.34224640e+02,
          3.21130066e+02, 1.07905115e+03, 2.06107666e+03, 3.14248657e+02,
          1.86010761e+01, 1.02463760e+02, 4.18842041e+02, 8.30548401e+02,
          3.52353668e+02, 2.65259766e+02, 9.77603271e+02, 2.39690381e+03,
          1.04219836e+03, 0., 2.66833286e+01, 78., 1.54281738e+02,
          2.65805206e+02, 3.37009644e+02, 4.50046356e+02, 3.62028107e+02,
          5.17378052e+02, 1.63181897e+03, 1.02573132e+03, 0.,
          2.14716827e+02, 0., 62., 1.26007111e+02, 2.41182846e+02,
          2.70192529e+03, 1.76624768e+03, 1.25234729e+03, 5.17719604e+02,
          1.06250977e+03, 9.19580383e+02, 4.54674133e+02, 156.,
          5.49960205e+02, 64., 7.26464661e+02, 9.92747803e+02,
          1.96290588e+02, 1.39806433e+03, 1.10285242e+03, 1.26723157e+03,
          1.14972217e+03, 7.00826355e+02, 2.68542053e+02, 6.51835205e+02,
          1.18939014e+03, 1.05678833e+03, 1.54073380e+02, 1.54463333e+02,
          0. ]
      - [ 5.57461084e+03, 2.05358749e+02, 1.94659698e+02, 2.65162201e+01,
          386., 9.09562744e+02, 0., 2.50158374e+03, 1.20458838e+03,
          1.00955437e+02, 3.22822906e+02, 9.85898376e+02, 1.63419324e+03,
          2.83196030e+01, 2.27036469e+02, 2.28110016e+02, 2.75603760e+02,
          0., 0., 7.23994690e+02, 5.18778015e+02, 1.26952820e+03,
          3.69316071e+02, 2.93813208e+03, 6.17540649e+02, 2.17971451e+02,
          4.16347931e+02, 5.91701599e+02, 1.25707886e+02, 2.58069763e+01,
          5.53204590e+02, 1.08281689e+03, 2.91298248e+02, 1.76476639e+02,
          2.22210571e+02, 3.11119965e+02, 8.09487793e+02, 1.05792877e+02,
          2.48718567e+02, 4.56113617e+02, 5.34378174e+02, 3.65337372e+02,
          3.32310577e+02, 2.52952905e+03, 1.65670288e+03, 2.75058258e+02,
          4.16632263e+02, 0., 2.11364685e+02, 5.73122192e+02,
          1.35357202e+03, 9.11266907e+02, 9.16761108e+02, 4.84651306e+02,
          8.01109314e+02, 2.78002991e+02, 1.19732132e+02, 6.10533020e+02,
          1.80113251e+02, 1.33549011e+03, 1.08115906e+03, 6.37181519e+02,
          2.81715149e+02, 3.22997314e+02 ]
      - [ 6.87404980e+03, 2.48409033e+03, 1.58522607e+03, 2.31597229e+02,
          80., 7.78973694e+01, 0., 5.76498047e+02, 8.39517700e+02,
          7.89806213e+02, 6.32213318e+02, 1.70398877e+03, 1.02928210e+03,
          3.33001526e+02, 7.10033798e+01, 1.42401819e+03, 6.84340625e+03,
          6.88186035e+01, 2.73210541e+02, 6.63149231e+02, 1.44421155e+03,
          5.60509277e+02, 2.61738129e+02, 2.29837723e+01, 1.97897400e+02,
          5.31018448e+01, 1.19131683e+02, 2.22212494e+02, 3.34439087e+02,
          4.22180542e+02, 1.84661206e+03, 3.00926782e+03, 4.82155212e+02,
          0., 0., 1.29100311e+02, 1.15655249e+03, 1.13895349e+03,
          6.95938416e+02, 2.43144897e+02, 1.79666699e+03, 6.06609558e+02,
          7.36278931e+02, 1.07358789e+03, 7.54085632e+02, 5.76092651e+02,
          7.70052979e+02, 1.45703247e+02, 3.68787079e+02, 4.37351257e+02,
          5.36935913e+02, 1.24548901e+03, 1.80608105e+03, 4.30432495e+02,
          5.69614441e+02, 2.99285492e+02, 4.29742218e+02, 1.85676605e+02,
          6.89922058e+02, 6.00785767e+02, 8.15109314e+02, 6.06419128e+02,
          5.28927002e+01, 2.44223145e+02 ]
      - [ 1.71972351e+03, 5.20382080e+03, 2.55323364e+03, 2.86451874e+02,
          4.43240601e+02, 1.15663315e+02, 1.67551239e+02, 3.85262909e+02,
          7.08440857e+02, 1.05991531e+02, 1.41658707e+02, 1.30552673e+02,
          6.86418457e+01, 4.86004105e+01, 0., 1.33949051e+02,
          1.40182166e+03, 4.32666130e+01, 1.86010761e+01, 0.,
          3.30262985e+01, 6.17897827e+02, 5.45893745e+01, 1.77200451e+01,
          0., 1.56963835e+01, 9.40688629e+01, 1.63722946e+02,
          4.99945526e+02, 2.86233307e+02, 1.65524231e+03, 4.23769336e+03,
          5.57884094e+02, 7.35974487e+02, 7.03607544e+02, 6.57243164e+02,
          4.60401001e+02, 9.14038010e+01, 4.54856171e+02, 8.06915222e+02,
          6.28456360e+02, 6.32664490e+02, 1.36538391e+03, 2.88834229e+03,
          1.36344543e+03, 2.37928955e+02, 1.47192459e+02, 7.90063324e+01,
          172., 1.94758850e+02, 1.25555176e+03, 7.63362305e+02,
          1.41569873e+03, 1.54294470e+03, 1.63460645e+03, 2.84463928e+02,
          5.51120178e+02, 3.56476044e+02, 6.01345337e+02, 1.43925049e+03,
          8.13115234e+02, 2.71857452e+02, 5.20806946e+02, 6.08276215e+01 ]
      - [ 4.00681958e+03, 1.15460486e+03, 2.15527084e+02, 1.16649536e+03,
          8.01891724e+02, 5.28654907e+02, 3.63076294e+02, 1.72244003e+02,
          24., 1.48499161e+02, 1.83869522e+02, 1.05853259e+03,
          2.17363062e+03, 7.10211258e+01, 0., 7.81206055e+02,
          9.02855591e+02, 0., 3.07180084e+02, 2.00504868e+02,
          2.07112231e+03, 9.89889160e+02, 8.00132996e+02, 1.24510999e+03,
          7.39865051e+02, 1.70083237e+02, 2.17297775e+02, 0.,
          1.01095650e+02, 1.48179749e+02, 3.55282379e+02, 1.06669360e+03,
          40., 4.61139923e+02, 0., 1.15906555e+03, 2.15933057e+03,
          1.34072961e+03, 7.00817627e+02, 6.03811768e+02, 4.96181458e+02,
          1.88827957e+02, 5.55518250e+02, 2.67572681e+03, 1.79933875e+03,
          2.56758728e+02, 1.84743073e+02, 0., 9.70234802e+02,
          3.83117249e+02, 4.29411072e+02, 1.42584094e+03, 8.81542297e+02,
          2.52173523e+02, 4.96188660e+02, 4.71887085e+02, 4.25759583e+02,
          4.07890228e+02, 3.51394348e+02, 6.14236206e+02, 5.10426849e+02,
          5.60838989e+02, 3.48393494e+02, 4.95608093e+02 ]
      - [ 2.91435156e+03, 2.71918750e+03, 1.09177966e+03, 0.,
          8.72811508e+01, 0., 1.88590103e+02, 8.05515747e+02,
          3.59873462e+03, 1.48647232e+02, 6.22608765e+02, 1.32120654e+03,
          1.24199890e+03, 2.27853745e+02, 2.09185852e+02, 8.69642944e+02,
          1.26736133e+03, 9.36055603e+01, 4.02638062e+02, 1.17686028e+02,
          1.48583301e+03, 7.80888611e+02, 0., 9.80905914e+01,
          4.04250366e+02, 2.41497894e+02, 2.41417755e+02, 3.05456085e+02,
          4.04770721e+02, 6.91468018e+02, 1.90080151e+03, 2.97991772e+03,
          3.19191711e+02, 1.69068024e+02, 1.20621216e+02, 1.42266815e+02,
          110., 1.20216469e+02, 4.97024902e+02, 4.11336151e+02,
          5.89292480e+02, 6.23761902e+02, 8.63578308e+02, 2.20880078e+03,
          1.24872278e+03, 6.73216797e+02, 4.22991150e+02, 0.,
          2.64493713e+02, 3.57848999e+02, 8.89011536e+02, 1.32698059e+03,
          1.19424536e+03, 9.16170105e+02, 3.73290222e+02, 2.59182617e+02,
          3.95588257e+02, 3.32191467e+02, 3.27252655e+02, 2.01990833e+03,
          9.84913147e+02, 2.97232635e+02, 1.47068527e+02, 2.03709137e+02 ]
      - [ 8.76517395e+02, 2.59386505e+02, 1.33272473e+03, 1.14963660e+03,
          3.68671997e+02, 8.94427204e+00, 2.21376602e+02, 9.42224182e+02,
          4.65946191e+03, 3.43485901e+02, 2.90104889e+02, 4.14968536e+02,
          6.16332581e+02, 1.57625702e+02, 6.86074677e+01, 4.64149628e+02,
          2.29389832e+02, 4.74368713e+02, 4.30587860e+02, 1.60256042e+02,
          5.90409302e+02, 1.16417334e+03, 2.98758911e+02, 2.19869849e+03,
          6.46438965e+02, 3.75808319e+02, 2.07304504e+02, 9.99299698e+01,
          1.47410034e+02, 1.86945480e+02, 6.84556763e+02, 1.19331474e+02,
          4.59812714e+02, 0., 0., 1.56865564e+03, 3.25236914e+03,
          1.37853674e+03, 7.16100540e+01, 5.08289642e+02, 4.52439301e+02,
          2.81139771e+02, 1.08881750e+03, 4.19816010e+02, 5.38882690e+02,
          7.50050354e+02, 5.16674744e+02, 1.78449326e+02, 3.96593140e+02,
          9.47236084e+02, 6.78136292e+02, 6.92370361e+02, 1.09855554e+03,
          2.54333817e+02, 6.81565918e+02, 4.50901001e+02, 6.75166870e+02,
          4.84741608e+02, 7.06860901e+02, 1.36300427e+03, 9.30766785e+02,
          3.68177582e+02, 3.83992188e+02, 2.21979279e+02 ]
      - [ 7.25513367e+02, 4.29576807e+03, 9.95810242e+02, 4.35205353e+02,
          1.19396387e+03, 2.66743042e+02, 1.57275223e+02, 2.04931046e+02,
          6.22226013e+02, 8.91134644e+02, 1.36331982e+03, 4.59672424e+02,
          2.76752655e+02, 0., 0., 3.30151482e+01, 5.10237961e+01,
          1.41421354e+00, 3.50809822e+01, 3.54682961e+01, 1.65173718e+03,
          1.32597705e+03, 4.54993561e+02, 6.34131241e+01, 118.,
          2.21260773e+02, 1.26330002e+02, 2.30913788e+02, 7.80096130e+02,
          3.23519379e+02, 1.05057930e+02, 1.77224960e+01, 82.,
          8.64633057e+02, 4.59718445e+02, 9.64953308e+02, 9.72809082e+02,
          5.58508057e+02, 1.30891711e+03, 1.36376721e+03, 7.79921204e+02,
          5.53618164e+02, 8.30892090e+02, 1.21390540e+03, 7.45068970e+02,
          1.85554596e+02, 9.04433517e+01, 0., 1.26943018e+03,
          8.06641846e+02, 8.00301880e+02, 1.16793884e+03, 1.30978003e+03,
          7.39353333e+02, 1.34901245e+03, 2.10237961e+01, 5.76875366e+02,
          3.25488770e+02, 3.36152679e+02, 9.74068787e+02, 7.36690430e+02,
          1.49428040e+02, 2.46172852e+02, 5.84415550e+01 ]
      - [ 3.55786182e+03, 8.63394287e+02, 0., 8.86453629e+01, 266., 0.,
          5.64623795e+01, 3.81087158e+03, 1.73534387e+03, 0., 0.,
          1.23593002e+02, 9.91210251e+01, 9.89152771e+02, 5.12670654e+02,
          2.91674744e+02, 2.25664062e+02, 7.29616943e+02, 1.34848053e+02,
          2.38541061e+02, 4.04653381e+02, 0., 4.85937988e+02,
          1.00523297e+03, 9.57372925e+02, 2.41461441e+02, 1.30866150e+02,
          3.45363281e+02, 2.55136353e+02, 7.64852905e+01, 5.67978859e+01,
          2.14644379e+02, 3.36162506e+02, 2.16060181e+02, 3.00240555e+01,
          3.22800255e+01, 1.39477710e+03, 2.34251221e+03, 1.01402979e+03,
          3.92173424e+01, 488., 0., 5.86361023e+02, 2.17042896e+03,
          9.19289856e+02, 7.82052307e+02, 0., 2.81403351e+02,
          4.17859711e+02, 3.98924744e+02, 1.13526184e+03, 1.52838074e+03,
          1.76033838e+03, 4.35605774e+02, 6.09161560e+02, 3.53553391e+01,
          94., 2.97695953e+02, 4.55651337e+02, 8.56027527e+02,
          4.69812653e+02, 1.20747665e+02, 6.68855103e+02, 7.00289383e+01 ]
      - [ 1.58866272e+03, 1.09187720e+03, 1.37755786e+03, 2.49489456e+02,
          716., 1.18072845e+02, 2.84889954e+02, 5.85501221e+02,
          4.73366241e+02, 3.17167725e+02, 2.76547302e+02, 2.20923218e+03,
          4.83340881e+02, 3.89014320e+01, 3.19049683e+01, 2.91547585e+01,
          6.08437500e+02, 5.03831673e+01, 3.14173203e+01, 2.54950981e+01,
          9.00328125e+02, 2.27566724e+03, 3.91630768e+02, 7.89568863e+01,
          10., 8.35069733e+01, 0., 1.08495979e+02, 9.96493347e+02,
          3.95715576e+02, 4.69603455e+02, 4.73956299e+02, 5.73173828e+02,
          4.50434509e+02, 0., 0., 358., 4.13192993e+02, 1.71519702e+03,
          1.13521655e+03, 1.13663098e+03, 7.37599487e+02, 8.55364990e+02,
          4.87372345e+02, 1.73894507e+03, 6.23743774e+02, 1.63064117e+02,
          5.26892334e+02, 2.12889908e+02, 8.21333008e+02, 1.54107581e+03,
          2.02232544e+02, 1.09432996e+03, 8.19088867e+02, 1.74022119e+03,
          2.46515518e+02, 7.08063171e+02, 5.58771484e+02, 2.26550293e+02,
          1.04508521e+03, 9.71132935e+02, 1.00041077e+02, 8.26801071e+01,
          0. ]
      - [ 4.12731348e+03, 3.30324902e+03, 1.50010559e+02, 7.73692474e+01,
          2., 0., 1.23445633e+02, 5.52268066e+01, 5.30917725e+02,
          7.36643433e+02, 7.04556580e+01, 5.70463318e+02, 2.99527637e+03,
          4.58701141e+02, 6.08276215e+01, 7.50588806e+02, 2.43346948e+03,
          8.94427204e+00, 5.61386414e+02, 7.68179626e+02, 9.03428650e+02,
          4.78888214e+02, 9.89949512e+00, 7.46726227e+01, 2.42148499e+02,
          2.23606815e+01, 3.13830750e+02, 3.67677704e+02, 8.15101929e+01,
          6.94262161e+01, 1.65209241e+03, 2.58551660e+03, 56.,
          5.79580566e+02, 5.83095169e+00, 5.57853012e+01, 4.15465454e+02,
          1.63994232e+02, 4.82479431e+02, 4.65875549e+02, 7.77323364e+02,
          1.40476318e+02, 1.05528748e+03, 3.24778418e+03, 1.84491992e+03,
          0., 1.76963272e+02, 1.78315475e+02, 3.42781219e+02,
          6.89664917e+02, 1.26335602e+02, 6.99063599e+02, 1.28124451e+03,
          2.18529938e+02, 3.74368622e+02, 3.64763367e+02, 6.85895813e+02,
          4.10589996e+02, 1.69446152e+02, 1.24442822e+03, 8.18853699e+02,
          4.20728638e+02, 2.31111450e+02, 1.40859314e+02 ]
      - [ 1.05848946e+02, 8.37821121e+01, 1.85975006e+02, 8.74757080e+01,
          6.00849243e+02, 5.21756714e+02, 1.04540112e+03, 4.45370557e+03,
          8.86704224e+02, 1.80599747e+01, 0., 0., 14., 0., 0., 0.,
          1.41539459e+02, 68., 3.16227741e+01, 7.42546539e+01,
          5.97272461e+02, 2.94228790e+02, 9.55124207e+02, 3.14030103e+03,
          1.09398669e+03, 0., 1.55104630e+02, 4.52592468e+02,
          5.34650024e+02, 1.80004105e+02, 1.38191254e+02, 3.81908813e+02,
          3.42423615e+02, 7.27645996e+02, 7.47878540e+02, 1.15362219e+03,
          1.91684607e+03, 2.80457977e+02, 9.17355728e+01, 4.63896523e+01,
          4.76931381e+01, 9.22821732e+01, 3.91152153e+01, 9.75294876e+01,
          1.86511383e+02, 1.19012604e+02, 2.14614960e+02, 3.51416931e+02,
          3.71110107e+02, 5.42426414e+01, 3.01551147e+02, 3.92774017e+02,
          6.14590607e+01, 1.52315474e+01, 0., 0., 28., 1.46672791e+02,
          4.57730438e+02, 1.14351111e+03, 8.56572876e+02, 6.16227760e+01,
          7.68993073e+01, 2.47386341e+01 ]
      - [ 7.09058411e+02, 6.92768372e+02, 3.51241797e+03, 3.68620544e+02,
          1.02678223e+03, 1.05789215e+02, 7.05619690e+02, 2.44689453e+02,
          0., 1.33206604e+02, 7.29184937e+02, 3.81170483e+03,
          1.63659683e+02, 0., 2.16333065e+01, 0., 34., 0., 0.,
          6.28615967e+02, 2.04557227e+03, 2.26376270e+03, 1.13914307e+02,
          1.79729095e+02, 9.70151520e+01, 5.93443787e+02, 5.49587280e+02,
          2.94601471e+02, 8.09173401e+02, 1.30747665e+02, 2.95409241e+01,
          0., 5.83484924e+02, 1.37795691e+03, 1.45149429e+02,
          7.14740601e+01, 9.88457825e+02, 0., 7.70780029e+02,
          2.47550024e+03, 1.10793738e+03, 3.72466156e+02, 7.42607849e+02,
          1.28822595e+03, 1.79623828e+03, 2.29739792e+02, 6.10567139e+02,
          0., 1.41620459e+03, 1.47408362e+03, 3.82662537e+02,
          1.19317578e+03, 6.59710388e+02, 2.67531921e+02, 1.30601807e+03,
          7.63212524e+02, 3.48085083e+02, 8.91066742e+01, 1.29799850e+02,
          9.50948914e+02, 1.11273682e+03, 3.50593597e+02, 3.17638519e+02,
          7.20364746e+02 ]
      - [ 6.96847046e+02, 3.72388525e+03, 1.83624939e+03, 9.73239624e+02,
          5.80630432e+02, 1.03315056e+02, 2.50599289e+01, 5.54380859e+02,
          1.74059723e+02, 2.33112274e+02, 7.78273132e+02, 6.38089111e+02,
          1.37573047e+03, 30., 2.62394318e+02, 3.28112427e+02,
          1.93203552e+03, 2.11740448e+02, 1.82016479e+02, 4.16393616e+02,
          8.96927612e+02, 1.66711792e+03, 3.52013702e+02, 1.12884621e+02,
          2.50390381e+02, 5.07330017e+02, 2.63523376e+02, 2.00536987e+02,
          7.12955139e+02, 2.86455872e+02, 2.04251245e+03, 2.38371509e+03,
          6.39257874e+02, 0., 8.12157593e+01, 4.36371429e+02,
          3.09061816e+03, 1.63211194e+03, 1.40952148e+03, 4.20775970e+02,
          9.15908447e+02, 3.72105072e+02, 1.67563354e+03, 6.49286682e+02,
          7.76582703e+02, 6.06338013e+02, 5.71622803e+02, 2.15244049e+02,
          3.99316589e+02, 6.83350403e+02, 1.36039807e+03, 9.79876587e+02,
          1.16213586e+03, 1.11144336e+03, 6.26874084e+02, 7.62937683e+02,
          2.76502136e+02, 2.87943420e+02, 4.06420868e+02, 1.26971240e+03,
          1.30951721e+03, 1.63258163e+02, 4.60495789e+02, 1.06977570e+02 ]
      - [ 4.98681201e+03, 1.19138147e+03, 1.06763359e+02, 8.47230759e+01,
          64., 1.29653381e+02, 1.88990250e+02, 7.07106829e+00,
          4.07434158e+01, 2.28391266e+02, 9.00807312e+02, 1.83488916e+03,
          4.56232849e+02, 1.20307938e+02, 1.08435135e+02, 7.97664856e+02,
          3.21354272e+03, 7.82091431e+02, 4.42462097e+02, 1.21016711e+03,
          1.02476575e+03, 1.04786743e+03, 4.15932693e+01, 3.16227770e+00,
          2.25454849e+02, 1.01836731e+02, 4.25876007e+02, 1.14928947e+02,
          3.97569656e+01, 7.09840851e+01, 2.10764343e+02, 5.47812317e+02,
          1.25283684e+02, 8.20255249e+02, 1.28600159e+02, 0., 272., 0.,
          4.10475952e+02, 2.39375879e+03, 1.57876770e+03, 6.50667480e+02,
          9.31741760e+02, 4.01000122e+02, 1.42621179e+03, 4.81910004e+02,
          4.90476776e+02, 0., 1.31009796e+02, 5.90609375e+02,
          8.72498840e+02, 0., 1.48644397e+03, 1.04588391e+03,
          1.36337585e+03, 1.62296326e+02, 4.54660828e+02, 1.79017349e+02,
          1.69197311e+02, 1.29884875e+03, 7.65004028e+02, 5.01730957e+02,
          9.33208542e+01, 4.78539429e+01 ]
      - [ 2.73605164e+02, 3.18060791e+02, 0., 0., 0., 1.55080627e+02,
          8.57021729e+02, 6.78070496e+02, 2.31188501e+03, 7.25544006e+02,
          3.27222107e+02, 0., 6.39353210e+02, 2.70328247e+02,
          8.60417847e+02, 1.14222763e+02, 2.90304504e+02, 8.80943298e+02,
          1.95233200e+02, 9.93127441e+01, 0., 7.88162384e+01,
          9.59744934e+02, 1.45592798e+03, 1.99413562e+03, 4.16128769e+01,
          9.60064468e+01, 5.63670959e+02, 4.57922363e+02, 2.32727478e+02,
          1.01821266e+02, 6.32648804e+02, 3.18173828e+02, 2.10237961e+01,
          1.36877457e+02, 3.16696815e+01, 6.80142288e+01, 3.55838928e+02,
          1.96957825e+02, 2.25259354e+02, 2.99087769e+02, 1.66553009e+02,
          2.92818420e+02, 5.09616882e+02, 3.77698096e+03, 3.84141479e+02,
          1.71708252e+02, 3.91164856e+01, 274., 6.62212067e+01,
          9.95626038e+02, 1.47993652e+03, 1.17066443e+03, 6.12386780e+02,
          4.10777313e+02, 2.28635971e+02, 2.94851440e+02, 2.11549728e+02,
          4.34060120e+02, 3.55544403e+02, 7.52400269e+02, 1.02935889e+03,
          3.58147766e+02, 1.05711670e+02 ]
      - [ 4.37434174e+02, 5.97036865e+02, 3.65747900e+03, 7.72876953e+02,
          9.29916626e+02, 1.17570381e+02, 1.22513718e+02, 6.48391968e+02,
          6., 1.54382645e+02, 7.71643921e+02, 2.54192603e+03,
          2.96486237e+02, 0., 7.82304306e+01, 1.94199371e+02, 166., 0.,
          1.13463646e+02, 2.64075775e+02, 2.00854578e+03, 1.46598779e+03,
          1.94768341e+02, 1.50848007e+02, 4.90323700e+02, 1.49676233e+03,
          1.14472852e+03, 3.83761932e+02, 3.52497223e+02, 1.57548340e+02,
          2.97768097e+01, 1.77200451e+01, 6.25210815e+02, 1.34012219e+03,
          4.99917053e+02, 1.83220596e+02, 4.56052612e+02, 1.91609772e+02,
          5.64542786e+02, 1.31569800e+03, 1.12815625e+03, 3.31477325e+02,
          9.15739685e+02, 2.92062817e+03, 3.96429108e+02, 1.35793961e+02,
          2.42502869e+02, 0., 2.41868628e+03, 9.70670410e+02,
          6.73177490e+02, 1.11194849e+03, 7.34185547e+02, 3.61015015e+02,
          1.12981665e+03, 3.63121155e+02, 244., 4.21900444e+01,
          2.71572784e+02, 6.04707764e+02, 1.43702051e+03, 4.24461639e+02,
          1.87435028e+02, 6.86589783e+02 ]
      - [ 624., 3.51842871e+03, 3.32493774e+03, 8.70002441e+02,
          8.91720093e+02, 4.38634224e+01, 3.90882111e+02, 2.54232178e+02,
          5.21549683e+01, 5.37199829e+02, 9.23642761e+02, 3.55892120e+02,
          0., 0., 0., 0., 3.56611786e+02, 6.68961029e+01, 2.77848873e+01,
          0., 3.76770325e+02, 1.30848474e+03, 2.48109528e+02,
          9.64558563e+01, 2.80834412e+02, 4.32964539e+02, 6.49163696e+02,
          5.69727295e+02, 8.10265564e+02, 8.30067215e+01, 5.54959183e+01,
          1.43977185e+03, 110., 9.10766724e+02, 7.25905945e+02,
          1.72839310e+02, 1.58277051e+03, 5.63973083e+02, 7.56961243e+02,
          7.07397156e+01, 7.16959534e+02, 2.09400177e+02, 9.41830994e+02,
          2.78284131e+03, 1.25379675e+03, 7.72010345e+01, 1.39032364e+02,
          0., 5.63979797e+02, 6.20284851e+02, 1.44650037e+03,
          7.30848877e+02, 1.20745068e+03, 1.01203564e+03, 1.16036963e+03,
          2.62591064e+02, 5.11934357e+02, 3.68366638e+02, 2.76794495e+02,
          8.95696777e+02, 1.24212952e+03, 5.71076294e+02, 1.81058411e+02,
          1.29313568e+02 ]
      - [ 1.49493750e+03, 5.99763184e+02, 3.60979706e+02, 4.58973328e+02,
          3.30104431e+02, 2.62346680e+02, 4.69005798e+02, 3.57951074e+03,
          4.13286084e+03, 2.63629456e+02, 3.26496544e+01, 0., 0., 0.,
          4.31712250e+02, 3.14127380e+02, 7.75209412e+02, 8.25255554e+02,
          6.10145508e+02, 2.13138458e+02, 5.51976318e+02, 1.94345215e+02,
          9.64211853e+02, 1.98123376e+03, 1.18844312e+03, 1.41421356e+01,
          1.88460938e+02, 1.65886887e+02, 1.89212311e+02, 5.05204376e+02,
          1.53747879e+02, 1.18673004e+02, 1.32606287e+03, 9.95586365e+02,
          1.13689343e+03, 2.50603809e+03, 2.68654126e+03, 4.69066467e+02,
          1.54326630e+02, 0., 7.98218872e+02, 58., 1.49178918e+03,
          9.17561951e+02, 1.15539929e+03, 0., 0., 4.00499687e+01,
          6.18857910e+02, 5.81377640e+01, 5.05261475e+02, 2.95752350e+02,
          1.31760547e+03, 8.71316956e+02, 5.10818970e+02, 1.64980118e+02,
          4.21630096e+02, 4.74051483e+02, 4.48417175e+02, 1.18465286e+02,
          9.70853333e+02, 7.67690735e+02, 3.09077057e+02, 8.62354736e+01 ]
      - [ 3.73633423e+03, 3.73264258e+03, 5.96207581e+02, 8.61671906e+01,
          0., 1.14017534e+01, 3.19838593e+02, 0., 16., 8.62531567e+00,
          3.15355225e+02, 1.74226416e+03, 3.32713074e+02, 1.73312927e+02,
          2.50112701e+02, 2.67321716e+02, 2.10562671e+03, 0.,
          6.83971436e+02, 4.68062042e+02, 1.26824768e+03, 9.32030823e+02,
          0., 5.81377640e+01, 2.55372047e+01, 2.86076599e+02,
          6.71792480e+02, 8.00499878e+01, 2.45110779e+02, 2.71193817e+02,
          5.93772156e+02, 4.92536133e+03, 1.76067017e+02, 4.27836151e+02,
          0., 4.37895203e+02, 9.61242554e+02, 2.51614105e+02,
          2.11423511e+03, 1.62813538e+02, 1.28328406e+03, 4.00174225e+02,
          3.47321838e+02, 1.71648645e+03, 1.90700049e+03, 3.85247345e+02,
          1.84443466e+02, 3.48839478e+02, 30., 4.25043884e+02,
          8.46185486e+02, 1.24093774e+03, 1.33933179e+03, 8.97568970e+02,
          7.48417297e+02, 2.68880707e+02, 6.67776672e+02, 4.52880920e+02,
          4.63240814e+02, 5.81232788e+02, 1.23431006e+03, 8.09199768e+02,
          4.14567993e+02, 5.50817604e+01 ]
      - [ 4.25533594e+03, 3.14727490e+03, 8.06597824e+01, 0., 358.,
          3.71674164e+02, 2.18008545e+02, 2.25830109e+02, 9.18087311e+01,
          5.02195168e+01, 6.14048218e+02, 2.11402100e+03, 4.40098511e+02,
          1.13595772e+02, 1.13364441e+02, 6.14846313e+02, 1.59923438e+03,
          1.68723145e+02, 3.70814056e+02, 3.92728271e+02, 1.07961938e+03,
          1.39674707e+03, 3.09171844e+02, 1.89589752e+02, 7.51799622e+02,
          6.00154602e+02, 3.64409302e+02, 1.22711044e+02, 5.99945679e+02,
          1.15268359e+03, 7.87916504e+02, 2.49734521e+03, 2.11060974e+02,
          6.49235413e+02, 1.00498749e+02, 2.28035069e+01, 4.65878510e+02,
          0., 1.11597034e+03, 5.85373413e+02, 1.30054102e+03,
          7.65402832e+01, 8.30863586e+02, 2.72848657e+03, 1.96607568e+03,
          3.14830750e+02, 1.39987793e+02, 1.13039818e+02, 8.97258728e+02,
          4.41073486e+02, 5.11150940e+02, 1.16369385e+03, 1.18172302e+03,
          5.25560608e+02, 1.80205444e+02, 3.29353485e+02, 4.94732574e+02,
          1.69851715e+02, 5.81424133e+02, 6.95096130e+02, 5.01907654e+02,
          7.64379089e+02, 6.28157776e+02, 1.37251190e+02 ]
      - [ 4.98808496e+03, 1.32555005e+03, 5.77754288e+01, 0.,
          8.07606995e+02, 0., 4.74130783e+01, 3.72567749e+02,
          3.14434357e+02, 7.47906799e+02, 7.03736267e+02, 1.91581226e+03,
          8.68364380e+02, 8.60232544e+00, 1.86848049e+01, 1.19038422e+02,
          3.42505249e+02, 2.56699402e+02, 1.42126694e+01, 8.07004761e+02,
          1.25340747e+03, 1.62647534e+03, 5.68768677e+02, 5.14239578e+01,
          3.56662216e+01, 1.02281021e+02, 4.29484711e+01, 3.03259583e+02,
          3.53551605e+02, 1.23482628e+02, 2.42776093e+02, 3.60480347e+02,
          3.75118530e+02, 1.16528833e+03, 1.73112671e+02, 0.,
          4.49071075e+02, 7.21110249e+00, 1.04997147e+02, 3.70334473e+03,
          2.04711731e+03, 6.42496216e+02, 1.64334558e+03, 3.75677826e+02,
          1.85310510e+03, 5.63320068e+02, 2.13447678e+02, 1.29553070e+02,
          5.44242630e+01, 2.22705371e+03, 9.67960327e+02, 5.39455688e+02,
          1.50934534e+03, 1.14445679e+03, 9.88771912e+02, 1.30187122e+03,
          6.96046509e+02, 1.98978088e+02, 5.71088135e+02, 1.91862427e+03,
          3.85386444e+02, 0., 1.12329872e+02, 1.90262966e+01 ]
      - [ 3.21859790e+03, 2.25974258e+02, 4.47213602e+00, 3.16227770e+00,
          4.02511719e+02, 0., 7.29476196e+02, 2.95874438e+03,
          1.67510547e+03, 1.47138779e+02, 1.75413803e+02, 8.16117249e+01,
          1.40520462e+02, 7.61094971e+02, 9.18348938e+02, 6.85640259e+02,
          7.44953430e+02, 1.30024866e+03, 0., 1.82784027e+02,
          1.22838737e+02, 4.80296295e+02, 8.78202362e+01, 1.66008545e+03,
          1.49340491e+03, 1.07826019e+02, 1.51323090e+02, 4.33379852e+02,
          4.69331390e+02, 1.61553745e+01, 1.36872803e+02, 9.80815964e+01,
          2.34485641e+02, 5.88866196e+01, 1.20282997e+02, 2.32364445e+01,
          4.93600037e+02, 3.49562592e+02, 8.86704224e+02, 6.85068237e+02,
          7.77364136e+02, 0., 7.22172852e+02, 1.31911426e+03,
          2.21132373e+03, 1.13596179e+03, 7.41003845e+02, 1.26598709e+02,
          1.83656342e+02, 2.57072601e+02, 9.71598022e+02, 1.84230701e+03,
          1.49162866e+03, 1.34635974e+03, 3.65106537e+02, 1.96987305e+02,
          1.11179359e+02, 4.96789703e+01, 1.94425873e+02, 5.67452271e+02,
          7.21077454e+02, 9.16178284e+02, 1.17773888e+02, 2.12049805e+02 ]
      - [ 5.47993958e+02, 1.01660675e+02, 8.14125290e+01, 0., 126., 0.,
